{
  "layer0_weight": [
    [
      -0.011921927332878113,
      -0.03380364179611206,
      -0.033499449491500854,
      0.03526100143790245,
      0.01483653113245964,
      0.022770371288061142,
      -0.04359902814030647,
      0.004707280546426773,
      -0.04784756898880005,
      0.03499692305922508,
      0.03759179636836052,
      0.02351035550236702,
      0.024185243993997574,
      0.01815592125058174,
      0.006514366716146469,
      -0.04892677068710327,
      -0.036394838243722916,
      -0.020569808781147003,
      0.035314109176397324,
      0.04971512034535408,
      0.02277497574687004,
      0.03475826606154442,
      -0.007740814238786697,
      -0.0034311003983020782,
      -0.014575328677892685,
      0.029663171619176865,
      0.008182473480701447,
      0.009055804461240768,
      0.017642024904489517,
      -0.01487162709236145,
      -0.025553062558174133,
      0.046318795531988144,
      -0.029922228306531906,
      0.014360729604959488,
      -0.004529647529125214,
      0.031190652400255203,
      0.008054859936237335,
      0.04031965509057045,
      0.018561985343694687,
      0.019412878900766373,
      0.02233775332570076,
      0.04317247495055199,
      -0.021881546825170517,
      -0.008549027144908905,
      -0.013813793659210205,
      0.006472039967775345,
      -0.0010939352214336395,
      -0.04609272629022598,
      -0.013403840363025665,
      0.005992230027914047,
      -0.02207520604133606,
      -0.0010553337633609772,
      -0.0035720542073249817,
      -0.004319712519645691,
      0.05005916580557823,
      0.04506247863173485,
      0.031168457120656967,
      0.015198130160570145,
      0.030605625361204147,
      -0.01618145778775215,
      -0.02938612923026085,
      0.004877310246229172,
      -0.007399525493383408,
      0.01184648647904396,
      -0.017503250390291214,
      0.030729014426469803,
      0.040057454258203506,
      0.04211557283997536,
      -0.004095625132322311,
      -0.0008327476680278778,
      0.01529628410935402,
      -0.04942972585558891,
      -0.03739281743764877,
      0.015267688781023026,
      -0.04252879321575165,
      -0.04472724720835686,
      -0.047691550105810165,
      0.020804960280656815,
      -0.05346449092030525,
      0.037662748247385025,
      0.004077248275279999,
      -0.0494539700448513,
      -0.026436490938067436,
      -0.010390307754278183,
      0.023813102394342422,
      -0.01695350930094719,
      -0.009126007556915283,
      -0.0007630549371242523,
      0.013133954256772995,
      0.0031728744506835938,
      0.04390893504023552,
      -0.019924037158489227,
      -0.03800325095653534,
      -0.02052786573767662,
      -0.05154179781675339,
      -0.049847669899463654,
      0.02892565354704857,
      0.03956250473856926,
      0.0088726244866848,
      -0.03867271542549133,
      0.036325257271528244,
      0.014068197458982468,
      0.035616498440504074,
      0.021335382014513016,
      0.007628537714481354,
      0.03302902355790138,
      0.03329676762223244,
      0.025212477892637253,
      0.05118279531598091,
      -0.03484910726547241,
      -0.02110666036605835,
      -0.04963178187608719,
      0.034925948828458786,
      -0.03632446378469467,
      0.036865632981061935,
      0.0525408498942852,
      0.007938321679830551,
      -0.016332168132066727,
      -0.03471948206424713,
      -0.045498959720134735,
      -0.024415018036961555,
      0.028643261641263962,
      0.030594538897275925,
      0.028396163135766983,
      0.0367356576025486,
      0.03628792241215706,
      -0.020897716283798218,
      0.05387932434678078,
      0.00720316544175148,
      -0.03351714834570885,
      0.010655190795660019,
      0.032677698880434036,
      -0.017521154135465622,
      0.02511705830693245,
      0.02870471403002739,
      -0.025701364502310753,
      0.02635211870074272,
      -0.0309629887342453,
      -0.020033039152622223,
      0.04850299283862114,
      0.04793405160307884,
      -0.015550930052995682,
      -0.030315903946757317,
      -0.03430507332086563,
      0.050271134823560715,
      0.0322437547147274,
      -0.009611506015062332,
      -0.013697385787963867,
      -0.015716668218374252,
      -0.025305354967713356,
      0.009368274360895157,
      -0.051993031054735184,
      -0.028319813311100006,
      0.046490538865327835,
      -0.02952135168015957,
      0.005280785262584686,
      -0.04010067880153656,
      0.03177497163414955,
      -0.017903819680213928,
      -0.010632183402776718,
      0.04138239845633507,
      0.030739594250917435,
      -0.05243932455778122,
      0.015450183302164078,
      0.04959236457943916,
      -0.04715773090720177,
      0.007552102208137512,
      -0.04108254611492157,
      -0.04224693030118942,
      0.04700609669089317,
      0.0066427625715732574,
      -0.029589105397462845,
      0.019608650356531143,
      -0.00924503430724144,
      -0.04433614760637283,
      0.047037821263074875,
      0.009508099406957626,
      0.030467193573713303,
      0.006452113389968872,
      -0.030304765328764915,
      0.04047992452979088,
      -0.027616403996944427,
      0.0045418404042720795,
      -0.03084949590265751,
      0.013705749064683914,
      -0.017443805932998657,
      -0.04888477548956871,
      -0.010614566504955292,
      0.03204872086644173,
      -0.04387517645955086,
      0.035714250057935715,
      0.031088050454854965,
      0.0035450048744678497,
      0.012556295841932297,
      -0.01795017346739769,
      -0.04723721370100975,
      0.02713189646601677,
      -0.031145360320806503,
      0.0019737109541893005,
      0.013049278408288956,
      -0.04435819387435913,
      0.0072626471519470215,
      0.019060414284467697,
      -0.02707347646355629,
      -0.014707285910844803,
      0.030528265982866287,
      -0.02913125790655613,
      -0.02697184681892395,
      0.03250649943947792,
      -0.012589693069458008,
      0.017127346247434616,
      -0.051415037363767624,
      0.018869999796152115,
      0.007459335029125214,
      0.04822319373488426,
      -0.010806854814291,
      -0.014457806944847107,
      -0.0483287088572979,
      -0.031793348491191864,
      -0.04246849566698074,
      0.03297954425215721,
      -0.04378649592399597,
      0.049638520926237106,
      0.05337768420577049,
      -0.009365439414978027,
      -0.010379381477832794,
      -0.04336366802453995,
      0.036252591758966446,
      0.0034751631319522858,
      0.01366826519370079,
      0.015352357178926468,
      -0.042791321873664856,
      -0.011404555290937424,
      -0.032651446759700775,
      0.04069778695702553,
      0.045061368495225906,
      0.029197487980127335,
      0.03395805135369301,
      -0.009376436471939087,
      0.007127348333597183,
      0.036955270916223526,
      0.02083677425980568,
      -0.044966280460357666,
      -0.02183499187231064,
      0.029245052486658096,
      -0.007252976298332214,
      0.040917571634054184,
      -0.031741201877593994,
      -0.027062026783823967,
      -0.033862002193927765,
      0.00435478612780571,
      0.012836206704378128,
      0.02568620815873146,
      0.022154871374368668,
      -0.028944294899702072,
      -0.01279820129275322,
      -0.05405844748020172,
      -0.005607821047306061,
      -0.013535648584365845,
      -0.012371160089969635,
      -0.010134700685739517,
      0.04340595379471779,
      -0.020818520337343216,
      -0.024011768400669098,
      0.007902313023805618,
      0.051658447831869125,
      -0.006866712123155594,
      -0.04471074789762497,
      0.03261253610253334,
      0.006007559597492218,
      -0.03736362233757973,
      0.03687020018696785,
      -0.03884834796190262,
      -0.047683216631412506,
      0.0007074736058712006,
      -0.028225623071193695,
      -0.0432666540145874,
      -0.04840819910168648,
      0.00018386542797088623,
      0.032002147287130356,
      -0.013396184891462326,
      -0.01868957281112671,
      -0.046232230961322784,
      0.04455990716814995,
      -0.000998232513666153,
      -0.04272034019231796,
      0.05309891328215599,
      0.03219747170805931,
      0.026713397353887558,
      -0.022930573672056198,
      0.007038529962301254,
      -0.04358915239572525,
      0.05139222368597984,
      -0.00027921050786972046,
      0.00788886472582817,
      -0.05233200639486313,
      0.03257129713892937,
      -0.018140051513910294,
      -0.004351601004600525,
      0.009159106761217117,
      0.03209624066948891,
      -0.04604686424136162,
      -0.03352206200361252,
      -0.034656643867492676,
      -0.010417427867650986,
      0.04168200120329857,
      0.043900664895772934,
      -0.03470157831907272,
      0.011953700333833694,
      0.011655692011117935,
      0.024685483425855637,
      -0.046695638447999954,
      -0.0084906667470932,
      0.032192979007959366,
      -0.018531475216150284,
      -0.024781307205557823,
      0.02606498822569847,
      0.02254437282681465,
      0.0007295534014701843,
      0.05314900353550911,
      -0.01895963028073311,
      0.03143006190657616,
      0.026392485946416855,
      -0.006205972284078598,
      0.04493577405810356,
      0.026078570634126663,
      -0.04154081642627716,
      -0.0348048061132431,
      0.011422369629144669,
      0.04797205701470375,
      0.03994603827595711,
      -0.00187017023563385,
      0.03808173909783363,
      0.04630998149514198,
      -0.01938621699810028,
      -0.0006353557109832764,
      -0.04177942872047424,
      0.012614917010068893,
      0.05202273651957512,
      -0.03148534148931503
    ],
    [
      0.017433110624551773,
      -0.023079464212059975,
      0.03564833477139473,
      0.04503624513745308,
      -0.041107743978500366,
      0.026203613728284836,
      -0.008869323879480362,
      -0.003672592341899872,
      -0.04976274445652962,
      0.03586464002728462,
      0.02662564441561699,
      -0.005156591534614563,
      -0.014579106122255325,
      -0.02745000645518303,
      0.04354589805006981,
      0.034922365099191666,
      0.05128083750605583,
      -0.04639728367328644,
      0.026961956173181534,
      0.016574416309595108,
      0.00464441254734993,
      0.018581856042146683,
      -0.05186137929558754,
      -0.014359790831804276,
      0.013618554919958115,
      0.004928041249513626,
      0.035528045147657394,
      0.0500052385032177,
      0.008297871798276901,
      -0.002564024180173874,
      -0.04142123833298683,
      -0.015609927475452423,
      -0.006470642983913422,
      0.04615127667784691,
      -0.009589120745658875,
      0.039767276495695114,
      0.038660090416669846,
      -0.005738567560911179,
      0.036602359265089035,
      0.02050623670220375,
      0.0030328556895256042,
      0.045803967863321304,
      -0.021607007831335068,
      -0.02911163680255413,
      0.048057835549116135,
      -0.02265835925936699,
      -0.029270850121974945,
      0.04888230189681053,
      -0.01628076657652855,
      0.04145202413201332,
      -0.04477667808532715,
      0.020789097994565964,
      0.020259764045476913,
      0.04866981878876686,
      -0.0009603686630725861,
      -0.02971455827355385,
      0.029532965272665024,
      -0.04918678104877472,
      -0.03870401158928871,
      0.023411903530359268,
      0.017069663852453232,
      -0.04762984812259674,
      0.016498330980539322,
      -0.04743865504860878,
      -0.025280581787228584,
      0.026119288057088852,
      0.01950347051024437,
      0.046697948127985,
      0.01181071624159813,
      -0.03931766003370285,
      -0.03635166585445404,
      -0.02712167426943779,
      -0.021206092089414597,
      0.016533758491277695,
      0.006745580583810806,
      -0.04099355638027191,
      -0.019174687564373016,
      0.037415843456983566,
      -0.03233369439840317,
      0.03054877743124962,
      0.0055241696536540985,
      -0.010829750448465347,
      0.031557414680719376,
      0.01784301921725273,
      -0.032435640692710876,
      0.03603773191571236,
      0.04592796787619591,
      0.052270542830228806,
      0.004097595810890198,
      0.024834390729665756,
      0.003665827214717865,
      0.036830659955739975,
      0.04574495181441307,
      -0.041681915521621704,
      -0.00907202810049057,
      0.009494606405496597,
      0.0209304578602314,
      0.026779349893331528,
      -0.0374860055744648,
      -0.05217515304684639,
      0.04858731850981712,
      -0.02238878607749939,
      0.007708672434091568,
      -0.00017227977514266968,
      0.006450135260820389,
      0.00202883780002594,
      0.048293981701135635,
      0.03049689158797264,
      0.012267056852579117,
      -0.028128627687692642,
      -0.0035007186233997345,
      0.030496854335069656,
      0.020328450947999954,
      -0.03660745173692703,
      0.03209783509373665,
      -0.01788325235247612,
      -0.04810178652405739,
      0.017720084637403488,
      0.04654296860098839,
      0.053951699286699295,
      0.0018397346138954163,
      0.008491512387990952,
      -0.012534815818071365,
      0.02975822612643242,
      -0.021074116230010986,
      -0.039067745208740234,
      0.007300585508346558,
      -0.0342627689242363,
      -0.02245456725358963,
      0.04266229644417763,
      -0.02561126835644245,
      -0.03202974423766136,
      -0.03678873926401138,
      0.04543754830956459,
      -0.0251730028539896,
      0.046921227127313614,
      0.012265991419553757,
      -0.010380227118730545,
      -0.026487188413739204,
      -0.04351580888032913,
      0.043057795614004135,
      0.047838110476732254,
      -0.0434570387005806,
      0.03967123106122017,
      0.03359038755297661,
      -0.02861308492720127,
      -0.0069791823625564575,
      -0.04257979616522789,
      -0.020218849182128906,
      0.03649083897471428,
      -0.00831308588385582,
      -0.01170426607131958,
      -0.03146243095397949,
      -0.008148718625307083,
      0.010688204318284988,
      -0.010911118239164352,
      -3.0063092708587646e-05,
      0.02554735168814659,
      0.001352265477180481,
      -0.04307743161916733,
      0.03465266153216362,
      0.03041106089949608,
      0.0015637800097465515,
      0.009663816541433334,
      0.004294544458389282,
      0.05095575377345085,
      0.04033505544066429,
      -0.040862198919057846,
      -0.05268349125981331,
      0.006609007716178894,
      0.042644012719392776,
      0.019719485193490982,
      0.05266791954636574,
      0.027911361306905746,
      0.03328515961766243,
      0.014368940144777298,
      -0.016234345734119415,
      -0.011944897472858429,
      0.04798289015889168,
      0.03439540043473244,
      0.004041802138090134,
      0.022442679852247238,
      0.003021780401468277,
      -0.01464850828051567,
      0.0020770393311977386,
      -0.02265124022960663,
      0.029523883014917374,
      0.012577515095472336,
      -0.030812205746769905,
      0.006587181240320206,
      -0.01465514674782753,
      0.0194963701069355,
      -0.025603722780942917,
      0.0034595876932144165,
      0.0005728714168071747,
      0.013631399720907211,
      -0.0537668876349926,
      -0.005370542407035828,
      0.020495738834142685,
      -0.02958468347787857,
      -0.03220778703689575,
      -0.04001577943563461,
      0.04043908044695854,
      -0.017264828085899353,
      -0.04637265205383301,
      -0.012505568563938141,
      0.03936035558581352,
      0.04351353272795677,
      -0.027939215302467346,
      -0.03968191146850586,
      -0.04229356348514557,
      0.0077977776527404785,
      -0.05352778360247612,
      -0.014726590365171432,
      0.021100308746099472,
      -0.03336211293935776,
      -0.023219304159283638,
      -0.020498476922512054,
      0.034901197999715805,
      -0.049122441560029984,
      -0.0020628757774829865,
      -0.007503814995288849,
      0.018435906618833542,
      -0.0104365274310112,
      -0.017591506242752075,
      -0.049052704125642776,
      -0.018258385360240936,
      -0.04926897957921028,
      -0.04990736022591591,
      0.05128374323248863,
      -0.03788726404309273,
      0.008965585380792618,
      0.029108408838510513,
      -0.005628399550914764,
      0.022166084498167038,
      0.0026823170483112335,
      0.00970068946480751,
      0.0096348337829113,
      -0.002052105963230133,
      -0.02492993138730526,
      -0.017788495868444443,
      -0.023052653297781944,
      0.0523616261780262,
      0.02107826992869377,
      -0.039932332932949066,
      -0.04550176486372948,
      0.0018243417143821716,
      -0.031618084758520126,
      -0.04570174962282181,
      0.0039114803075790405,
      -0.0380253866314888,
      0.048401396721601486,
      0.007225673645734787,
      0.0037541985511779785,
      -0.04305402562022209,
      -0.005091335624456406,
      -0.01575426012277603,
      0.016329053789377213,
      0.018577206879854202,
      0.026120293885469437,
      -0.028765596449375153,
      -0.05303758755326271,
      -0.00981501117348671,
      0.006573915481567383,
      0.024994108825922012,
      0.023659128695726395,
      0.010931100696325302,
      0.014141630381345749,
      0.015122588723897934,
      0.0021974630653858185,
      0.045697975903749466,
      0.052646029740571976,
      -0.01183481514453888,
      0.027977783232927322,
      0.027500230818986893,
      0.03789794072508812,
      0.0322716124355793,
      0.018299687653779984,
      -0.03746847063302994,
      -0.016641736030578613,
      0.03594480827450752,
      0.04111337289214134,
      0.026643235236406326,
      0.03293624892830849,
      0.03131909295916557,
      0.029779639095067978,
      -0.0426061749458313,
      0.02899188920855522,
      -0.05007747560739517,
      -0.009823977947235107,
      -0.0040306225419044495,
      0.01814371719956398,
      0.05404510721564293,
      -0.007906131446361542,
      0.02546313777565956,
      -0.05113023519515991,
      0.02751772478222847,
      0.03003176674246788,
      0.009127821773290634,
      -0.04148631542921066,
      -0.004654325544834137,
      0.014216039329767227,
      0.03774156793951988,
      -0.01631537824869156,
      0.017397161573171616,
      -0.014036338776350021,
      0.005370624363422394,
      0.053718555718660355,
      -0.03704427555203438,
      0.03438234701752663,
      -0.02539500594139099,
      0.04121248051524162,
      -0.002651859074831009,
      -0.012001864612102509,
      -0.02631755918264389,
      0.03986236825585365,
      0.052272308617830276,
      -0.003734305500984192,
      -0.02057187259197235,
      0.021596763283014297,
      -0.013740181922912598,
      -0.024037323892116547,
      -0.010162629187107086,
      -0.0044997259974479675,
      -0.008198216557502747,
      0.037443045526742935,
      0.010743368417024612,
      -7.065758109092712e-05,
      0.03659939393401146,
      0.03877687826752663,
      0.04345614090561867,
      -0.05234616994857788,
      0.0038865171372890472,
      0.018980782479047775,
      -0.02040654793381691,
      0.00514979287981987,
      0.03578535094857216,
      0.04393824562430382,
      0.01836520805954933,
      -0.04059663414955139
    ],
    [
      0.04117181524634361,
      -0.03650745004415512,
      -0.033865444362163544,
      0.052251819521188736,
      -0.00026582181453704834,
      0.029008980840444565,
      0.021156486123800278,
      -0.0007426366209983826,
      -0.018235068768262863,
      -0.03218340128660202,
      0.026650380343198776,
      0.04651302471756935,
      -0.009115256369113922,
      0.006559886038303375,
      -0.049982890486717224,
      0.0186542309820652,
      -0.03825291246175766,
      0.03709268942475319,
      0.04477279260754585,
      0.030914511531591415,
      0.01796644553542137,
      -0.022332146763801575,
      -0.014449112117290497,
      0.031777363270521164,
      0.024367395788431168,
      0.03973552957177162,
      -0.0430486686527729,
      -0.03358487784862518,
      -0.02659866027534008,
      0.04787201061844826,
      0.02499677613377571,
      -0.05058423802256584,
      -0.05191763490438461,
      0.04363560304045677,
      -0.027634641155600548,
      -0.027476662769913673,
      -0.048192866146564484,
      0.003964576870203018,
      0.006452042609453201,
      -0.049894075840711594,
      0.05261604115366936,
      -0.03209416940808296,
      0.02366529032588005,
      -0.0340755432844162,
      0.050705838948488235,
      0.004054520279169083,
      0.03200303390622139,
      0.009419109672307968,
      -0.011432360857725143,
      -0.008372947573661804,
      0.051405828446149826,
      0.029926303774118423,
      0.00046387314796447754,
      -0.00436822697520256,
      -0.017198879271745682,
      -0.031948428601026535,
      0.025733087211847305,
      0.012705173343420029,
      -0.05011983588337898,
      0.03613440319895744,
      -0.04162466526031494,
      -0.023742666468024254,
      -0.004755306988954544,
      0.013558004051446915,
      0.03043026104569435,
      -0.04341115057468414,
      -0.024610105901956558,
      0.0430261455476284,
      -0.0505504310131073,
      -0.013676140457391739,
      0.026975315064191818,
      -0.004278711974620819,
      -0.006080511957406998,
      -0.038361772894859314,
      0.030891012400388718,
      0.04953925684094429,
      -0.03861580044031143,
      -0.033887557685375214,
      -0.044428057968616486,
      0.03588389977812767,
      0.04762947931885719,
      0.017219405621290207,
      -0.0076706744730472565,
      0.044710759073495865,
      0.023900378495454788,
      -0.01282849907875061,
      0.019975852221250534,
      0.04361914470791817,
      -0.043870709836483,
      0.01813161000609398,
      0.01028117910027504,
      -0.0016067884862422943,
      0.006703559309244156,
      0.020496051758527756,
      -0.031705938279628754,
      -0.003977566957473755,
      0.0008319802582263947,
      -0.0018792860209941864,
      0.039252277463674545,
      -0.03074159473180771,
      -0.038134150207042694,
      -0.04527522623538971,
      -0.0422721728682518,
      -0.01916610822081566,
      0.04384216293692589,
      -0.04352833330631256,
      -0.020129147917032242,
      -0.00243246927857399,
      -0.048885639756917953,
      -0.029795391485095024,
      -0.014683876186609268,
      0.021383065730333328,
      -0.022141531109809875,
      0.008727539330720901,
      0.04651283100247383,
      -0.041004158556461334,
      -0.026195848360657692,
      -0.03373132646083832,
      -0.047753263264894485,
      0.02319755032658577,
      0.019590366631746292,
      0.04659680649638176,
      -0.02885505184531212,
      -0.02854355424642563,
      -0.05074981972575188,
      -0.0013122521340847015,
      -0.015800289809703827,
      0.03688022121787071,
      0.02065647765994072,
      0.045640211552381516,
      -0.04650568962097168,
      -0.028722913935780525,
      -0.0351688489317894,
      -0.04774700477719307,
      -0.024234255775809288,
      -0.024316076189279556,
      0.044689055532217026,
      -0.02562648057937622,
      0.042326200753450394,
      0.019200969487428665,
      0.014084640890359879,
      0.0024685412645339966,
      0.04660191759467125,
      0.0055969469249248505,
      0.012035075575113297,
      -0.03387482464313507,
      -0.04216538369655609,
      0.004716493189334869,
      0.011802274733781815,
      0.0433635376393795,
      0.007467377930879593,
      0.018268223851919174,
      0.018180888146162033,
      -0.05373149737715721,
      0.029633935540914536,
      0.02885591611266136,
      -0.020249824970960617,
      -0.03914247453212738,
      -0.04576384276151657,
      0.030295584350824356,
      0.037938039749860764,
      0.009247805923223495,
      -0.01746319979429245,
      0.008856523782014847,
      0.04092196002602577,
      -0.0026627592742443085,
      0.036126758903265,
      -0.02560599334537983,
      -0.050953421741724014,
      -0.040572695434093475,
      -0.050659678876399994,
      0.048528704792261124,
      0.022220183163881302,
      -0.017775457352399826,
      -0.02772701345384121,
      0.04009930416941643,
      -0.052194759249687195,
      -0.02777230180799961,
      0.040208619087934494,
      -0.04169804975390434,
      -0.029434945434331894,
      -0.007810328155755997,
      0.01810659095644951,
      0.027313414961099625,
      -0.03712867200374603,
      0.0019527561962604523,
      -0.015110764652490616,
      0.052116867154836655,
      0.021557804197072983,
      -0.0459396094083786,
      -0.02041209489107132,
      0.025533612817525864,
      -0.001426994800567627,
      0.03001144900918007,
      -0.05397205427289009,
      0.037253234535455704,
      0.050575342029333115,
      0.0462321974337101,
      0.04874511435627937,
      -0.02241920307278633,
      -0.012873571366071701,
      -0.012828968465328217,
      -0.045275572687387466,
      0.050058986991643906,
      0.05276140943169594,
      -0.01939956098794937,
      -0.04246494546532631,
      -0.04685796797275543,
      -0.0039016008377075195,
      0.02261795476078987,
      -0.03003481775522232,
      -0.04261982813477516,
      -0.05093960091471672,
      -0.019717209041118622,
      -0.024247029796242714,
      0.028582904487848282,
      -0.0010026954114437103,
      0.04538773372769356,
      0.035195354372262955,
      0.04409560188651085,
      0.015539389103651047,
      -0.03664176166057587,
      -0.04723028093576431,
      -0.025919301435351372,
      0.04549877718091011,
      -0.02036641538143158,
      -0.015874676406383514,
      0.03329653665423393,
      0.012264993041753769,
      -0.046687666326761246,
      0.0013263970613479614,
      0.003717329353094101,
      -0.001124270260334015,
      0.04562165215611458,
      0.011674944311380386,
      -0.022216640412807465,
      -0.02372768707573414,
      -0.006620679050683975,
      -0.05383985862135887,
      0.0366206131875515,
      0.008139088749885559,
      -0.005559366196393967,
      -0.04752800241112709,
      0.012659091502428055,
      -0.04589539021253586,
      -0.006178073585033417,
      0.05083109810948372,
      -0.006787952035665512,
      0.019166912883520126,
      -0.0019595883786678314,
      -0.010841630399227142,
      0.04106608405709267,
      0.009660053998231888,
      -0.05308980494737625,
      -0.0010065659880638123,
      -0.013365533202886581,
      0.024242330342531204,
      -0.0014741942286491394,
      -0.015553198754787445,
      0.017205912619829178,
      0.020542260259389877,
      0.015887010842561722,
      -0.04987634718418121,
      0.024617869406938553,
      0.005324427038431168,
      -0.053713299334049225,
      -0.0038433074951171875,
      0.0313996858894825,
      -0.029148589819669724,
      0.007717616856098175,
      0.05326296016573906,
      0.032203953713178635,
      0.029318150132894516,
      -0.015092015266418457,
      -0.011111441999673843,
      -0.04190502315759659,
      0.04318132624030113,
      -0.0236358642578125,
      0.0007131509482860565,
      0.016295675188302994,
      0.008926358073949814,
      0.04322764649987221,
      0.01428283378481865,
      0.0028755031526088715,
      0.034849587827920914,
      -0.030373740941286087,
      -0.01934325322508812,
      0.043518710881471634,
      0.021366525441408157,
      -0.03998204320669174,
      -0.011427048593759537,
      -0.05196614935994148,
      -0.009011555463075638,
      -0.011957742273807526,
      0.008000664412975311,
      0.027583617717027664,
      0.022347819060087204,
      0.032847803086042404,
      -0.041063740849494934,
      -0.01366174966096878,
      0.019411694258451462,
      0.0521639846265316,
      0.04651196673512459,
      0.046975474804639816,
      0.027182158082723618,
      0.045808229595422745,
      8.187815546989441e-05,
      0.05043244734406471,
      0.0033778809010982513,
      0.0012516118586063385,
      0.021703753620386124,
      -0.008321180939674377,
      -0.03475963696837425,
      0.003979828208684921,
      -0.0061256177723407745,
      -0.038232773542404175,
      -0.03848655894398689,
      -0.05119818076491356,
      0.0037457868456840515,
      -0.03312837332487106,
      -0.04642239212989807,
      0.009499337524175644,
      -0.01058485358953476,
      0.03851297125220299,
      0.013142798095941544,
      -0.042429808527231216,
      -0.05050200968980789,
      -0.011148273944854736,
      0.028294656425714493,
      0.025313924998044968,
      0.03957429900765419,
      0.04674670472741127,
      0.052669707685709,
      0.02902420237660408,
      -0.00040676072239875793,
      -0.015815813094377518,
      -0.02516692690551281,
      -0.05153697729110718,
      0.004040669649839401,
      0.0007508173584938049
    ],
    [
      -0.014831796288490295,
      -0.05005728453397751,
      0.03626220300793648,
      -0.053339336067438126,
      0.03558791056275368,
      -0.01298515871167183,
      -0.007173400372266769,
      -0.013505697250366211,
      0.009872514754533768,
      0.03502224013209343,
      -0.009942345321178436,
      -0.04506782069802284,
      -0.006014503538608551,
      0.039826784282922745,
      -0.02200831100344658,
      -0.05028098076581955,
      -0.04455483704805374,
      0.03720954433083534,
      0.015010569244623184,
      0.007464863359928131,
      -0.02031334862112999,
      -0.0023456551134586334,
      -0.0147901251912117,
      0.0488002710044384,
      -0.010708492249250412,
      -0.04317088797688484,
      -0.04590548574924469,
      0.053715113550424576,
      -0.03187241405248642,
      0.0008149705827236176,
      0.04521740600466728,
      -0.03245483338832855,
      -0.04023586958646774,
      -0.042391303926706314,
      -0.03540487214922905,
      -0.025639306753873825,
      0.008483495563268661,
      -0.05146454647183418,
      -0.03592374175786972,
      0.010102998465299606,
      -0.051749151200056076,
      0.0534411184489727,
      0.05047528073191643,
      0.0490635521709919,
      -0.01309819146990776,
      -0.020618658512830734,
      -0.05200783163309097,
      0.03224744275212288,
      0.04559781774878502,
      0.04154575243592262,
      0.02288685366511345,
      0.015597138553857803,
      0.0024577192962169647,
      0.027069788426160812,
      -0.05100482702255249,
      -0.0007759705185890198,
      0.005161583423614502,
      0.053130652755498886,
      -0.02509744092822075,
      0.003167245537042618,
      -0.008824821561574936,
      0.05337538197636604,
      -0.00651424378156662,
      0.014369320124387741,
      0.05237704887986183,
      -0.015982981771230698,
      0.01884308084845543,
      -0.01665496826171875,
      -0.003788534551858902,
      0.009031858295202255,
      -0.016382385045289993,
      -0.04090501368045807,
      0.025170501321554184,
      -0.012228291481733322,
      -0.0341322124004364,
      -0.019143231213092804,
      0.040722716599702835,
      -0.033051684498786926,
      0.053227294236421585,
      -0.05255580693483353,
      0.0363648496568203,
      0.05283140018582344,
      -0.03233639895915985,
      -0.025510193780064583,
      0.0030149221420288086,
      -0.04893806576728821,
      0.012675035744905472,
      0.024896468967199326,
      -0.05040086433291435,
      0.053098324686288834,
      0.04147009178996086,
      0.018096763640642166,
      0.017573628574609756,
      0.01764029636979103,
      -0.04554813355207443,
      -0.012048006057739258,
      0.014967385679483414,
      -0.03621666133403778,
      0.04201512411236763,
      0.014497209340333939,
      0.034263815730810165,
      -0.005017098039388657,
      0.02500293031334877,
      0.045336637645959854,
      -0.02345660887658596,
      -0.00809500366449356,
      0.045167479664087296,
      0.0023386292159557343,
      -0.029561828821897507,
      0.02434556558728218,
      -0.028002366423606873,
      0.04040456935763359,
      -0.036214523017406464,
      0.03814990445971489,
      0.04563044384121895,
      -0.043226998299360275,
      -0.01053941622376442,
      0.03710709139704704,
      0.0034216754138469696,
      -0.014095693826675415,
      0.05168677493929863,
      0.021631237119436264,
      -0.04540359228849411,
      0.025910090655088425,
      -0.02079058438539505,
      0.04495319351553917,
      -0.008376747369766235,
      -0.013936314731836319,
      0.024694200605154037,
      -0.033837031573057175,
      -0.03616974502801895,
      0.014417823404073715,
      -0.039746955037117004,
      -0.015724219381809235,
      -0.009591378271579742,
      0.015196215361356735,
      0.0029421597719192505,
      0.046135034412145615,
      0.02349149063229561,
      0.037035178393125534,
      0.05125248059630394,
      -0.004330608993768692,
      -0.04468260705471039,
      0.03203747048974037,
      -0.026539193466305733,
      0.04255321994423866,
      -0.01291285827755928,
      0.02742578461766243,
      -0.04624272882938385,
      0.008775327354669571,
      -0.05354617163538933,
      0.02490988001227379,
      0.04529460147023201,
      -0.03742209076881409,
      0.051874469965696335,
      -0.014022164046764374,
      0.040956657379865646,
      -0.0011886470019817352,
      0.021420497447252274,
      -0.003641922026872635,
      0.028944242745637894,
      -0.04394066706299782,
      0.04452032223343849,
      -0.02393047697842121,
      0.031722541898489,
      -0.013640966266393661,
      0.015111763030290604,
      0.008801814168691635,
      -0.029100516811013222,
      0.026706580072641373,
      -0.045771725475788116,
      -0.027026521041989326,
      -0.04662700369954109,
      -0.043011169880628586,
      -0.03149200975894928,
      -0.047156043350696564,
      0.023849237710237503,
      0.025904234498739243,
      -0.005815684795379639,
      0.036634352058172226,
      0.0450439490377903,
      -0.005954377353191376,
      0.046587299555540085,
      -0.013122506439685822,
      0.052327241748571396,
      0.03445901349186897,
      0.036841850727796555,
      -0.02212541177868843,
      0.034028101712465286,
      -0.003262009471654892,
      0.030052360147237778,
      -0.01862555742263794,
      -0.02020072191953659,
      -0.0021240003407001495,
      -0.04928284510970116,
      -0.035900019109249115,
      -0.04584192484617233,
      0.040549736469984055,
      0.04037586227059364,
      0.02483757957816124,
      0.024028215557336807,
      -0.04726993292570114,
      0.032385725528001785,
      -0.04907338321208954,
      -0.030151348561048508,
      -0.052415862679481506,
      -0.01625097543001175,
      -0.007386751472949982,
      -0.045426145195961,
      -0.02608288638293743,
      0.02714749053120613,
      -0.0019232891499996185,
      0.02968866005539894,
      -0.03037215583026409,
      0.01166846975684166,
      -0.0309311356395483,
      -0.04796361178159714,
      0.024869274348020554,
      0.03326406702399254,
      0.022587399929761887,
      -0.024739814922213554,
      0.03613290563225746,
      -0.036761172115802765,
      -0.03559686243534088,
      0.017431963235139847,
      -0.004385769367218018,
      -0.02489222027361393,
      0.03549281880259514,
      -0.012437332421541214,
      0.03472362831234932,
      0.028611604124307632,
      -0.0035843215882778168,
      0.021838929504156113,
      -0.043941326439380646,
      0.0015890859067440033,
      0.019106458872556686,
      0.003845948725938797,
      0.023646745830774307,
      -0.014189768582582474,
      0.030487481504678726,
      0.04935446009039879,
      0.008231263607740402,
      0.03778337314724922,
      0.006886284798383713,
      0.01994001492857933,
      0.017318811267614365,
      0.046154167503118515,
      0.011319492012262344,
      0.04671557620167732,
      -0.046679459512233734,
      0.006741087883710861,
      -0.026276875287294388,
      -0.04331691563129425,
      -0.03381641209125519,
      0.008936215192079544,
      -0.030324457213282585,
      -0.05128205195069313,
      -0.01990620046854019,
      0.04769029840826988,
      -0.009085521101951599,
      0.015546243637800217,
      -0.02983926236629486,
      -0.016808882355690002,
      0.04414599761366844,
      -0.0447988286614418,
      0.022029701620340347,
      -0.008010324090719223,
      0.026071224361658096,
      -0.030869491398334503,
      0.007596146315336227,
      0.02718094363808632,
      -0.04820670932531357,
      0.049634601920843124,
      0.043375540524721146,
      0.047445278614759445,
      0.03605104610323906,
      -0.04901915788650513,
      -0.05304982513189316,
      0.0004990100860595703,
      -0.018877673894166946,
      -0.0027919933199882507,
      0.05241492763161659,
      -0.05049620941281319,
      -0.05061935633420944,
      -0.00866035744547844,
      -0.04447505250573158,
      -0.014180362224578857,
      0.04239118471741676,
      -0.02033061906695366,
      -0.03875679150223732,
      -0.044838253408670425,
      -0.05083032697439194,
      -0.03289566561579704,
      0.041387829929590225,
      0.021925952285528183,
      -0.027583030983805656,
      -0.03437059745192528,
      0.014894504100084305,
      0.026450354605913162,
      0.021964166313409805,
      0.005144517868757248,
      0.027279574424028397,
      0.0523703433573246,
      -0.027458392083644867,
      -0.03345392644405365,
      0.010555054992437363,
      0.025843333452939987,
      -0.03909638524055481,
      -0.023143675178289413,
      0.026306170970201492,
      -0.02623366378247738,
      -0.04173636808991432,
      0.05310618504881859,
      0.044209275394678116,
      0.03395537659525871,
      -0.029982786625623703,
      -0.047257695347070694,
      -0.029712030664086342,
      0.03013690933585167,
      -0.03891811892390251,
      -0.025750834494829178,
      0.04100191220641136,
      0.036425407975912094,
      -0.013912510126829147,
      -0.04996801167726517,
      -0.024607094004750252,
      -0.014927219599485397,
      -0.03183718025684357,
      0.023511309176683426,
      -0.023849688470363617,
      -0.03739304840564728,
      -0.037573546171188354,
      0.02891690656542778,
      0.0381789393723011,
      0.05402746424078941,
      -0.042536236345767975,
      0.037714045494794846,
      0.037611622363328934,
      0.03467274829745293,
      -0.017306435853242874
    ],
    [
      -0.02938471920788288,
      -0.007700726389884949,
      -0.04272665083408356,
      0.01579204574227333,
      0.047995347529649734,
      -0.027406277135014534,
      -0.020436353981494904,
      0.006329111754894257,
      -0.032134342938661575,
      -0.010679583996534348,
      0.0006845034658908844,
      -0.00538577139377594,
      -0.0010017827153205872,
      0.05035019293427467,
      0.036101605743169785,
      0.008937980979681015,
      0.05364295467734337,
      0.02501795068383217,
      0.026999671012163162,
      0.03687426075339317,
      0.02474891021847725,
      -0.025484159588813782,
      0.039865437895059586,
      -0.040338072925806046,
      0.0500059612095356,
      -0.003588259220123291,
      -0.024753475561738014,
      0.014005463570356369,
      -0.05001772567629814,
      0.034758154302835464,
      0.045592863112688065,
      0.0466315858066082,
      0.018464643508195877,
      -0.03443262726068497,
      -0.04924479126930237,
      -0.00096120685338974,
      -0.03954111039638519,
      -0.045425936579704285,
      0.01508229598402977,
      -0.03564108535647392,
      -0.029344215989112854,
      -0.047071851789951324,
      0.01995135471224785,
      -0.03373795002698898,
      -0.052940547466278076,
      -0.0188966803252697,
      -0.0437949076294899,
      0.051473382860422134,
      -0.0001418478786945343,
      0.007757198065519333,
      -0.014183547347784042,
      -0.04592938721179962,
      -0.03582259267568588,
      -0.041441816836595535,
      -0.01489134132862091,
      -0.02846662700176239,
      -0.001757260411977768,
      0.021180670708417892,
      -0.0014096274971961975,
      -0.011141777038574219,
      -0.05146148428320885,
      -0.04363369569182396,
      0.05403516814112663,
      0.010097797960042953,
      0.05018879845738411,
      0.03146525099873543,
      -0.03744456171989441,
      0.0010578744113445282,
      -0.010018188506364822,
      -0.005402944982051849,
      -0.05016881972551346,
      -0.04246607795357704,
      0.026139024645090103,
      -0.012785252183675766,
      -0.032962165772914886,
      -0.021438736468553543,
      -0.023289648815989494,
      0.01895921304821968,
      0.023690108209848404,
      -0.037625402212142944,
      0.04490840807557106,
      0.050073202699422836,
      0.006410051137208939,
      -0.001641787588596344,
      0.04556359723210335,
      0.049177397042512894,
      -0.0006051510572433472,
      -0.03609674051403999,
      0.0035770125687122345,
      -0.01546676829457283,
      -0.02111978456377983,
      0.01982812210917473,
      0.021270092576742172,
      0.014435399323701859,
      0.021724607795476913,
      -0.04551629722118378,
      -0.0078909732401371,
      -0.01338110864162445,
      -0.04196120426058769,
      -0.011365905404090881,
      -0.047665663063526154,
      0.04765578731894493,
      0.03224874660372734,
      -0.009961307048797607,
      0.016487974673509598,
      0.019631486386060715,
      -0.009276047348976135,
      0.04920967295765877,
      0.025175120681524277,
      0.03267646208405495,
      -0.0361715629696846,
      1.1499971151351929e-05,
      -0.002265501767396927,
      -0.05383124575018883,
      0.004241686314344406,
      -0.031067851930856705,
      0.0049398913979530334,
      -0.05095471441745758,
      0.012009818106889725,
      -0.046311620622873306,
      -0.020037971436977386,
      0.011979576200246811,
      -0.025961874052882195,
      0.03561447933316231,
      -0.0011265911161899567,
      -0.005845915526151657,
      -0.02807222120463848,
      -0.05175452306866646,
      0.04007815197110176,
      0.02234293892979622,
      -0.04674283787608147,
      -0.02625829540193081,
      -0.0273897722363472,
      -0.038075633347034454,
      0.021171588450670242,
      0.029442045837640762,
      -0.04388522356748581,
      -0.01308516412973404,
      0.031908754259347916,
      -0.04452214390039444,
      0.012028153985738754,
      0.012864235788583755,
      0.04441468045115471,
      -0.012701254338026047,
      -0.019970372319221497,
      -0.014225151389837265,
      -0.01515539363026619,
      0.023367222398519516,
      0.014930609613656998,
      -0.01217196136713028,
      -0.02811812236905098,
      0.048126425594091415,
      -0.05336452275514603,
      -0.0013341829180717468,
      0.015369411557912827,
      -0.02606941945850849,
      -0.03793003037571907,
      -0.028817685320973396,
      0.022890370339155197,
      0.024189267307519913,
      0.05159708485007286,
      0.0015961900353431702,
      0.0420939140021801,
      0.006320621818304062,
      -0.02800709940493107,
      -0.053701020777225494,
      0.011614758521318436,
      -0.018210288137197495,
      -0.004614286124706268,
      -0.010081484913825989,
      -0.018607713282108307,
      0.03327888622879982,
      0.021661069244146347,
      0.00751134380698204,
      -0.02763528749346733,
      0.025005865842103958,
      0.04002463445067406,
      0.0007908269762992859,
      -0.019476022571325302,
      -0.022098589688539505,
      0.053409624844789505,
      -0.02486586943268776,
      -0.037405826151371,
      0.02902623638510704,
      0.05170154944062233,
      -0.04818110913038254,
      -0.00034606829285621643,
      -0.042430080473423004,
      0.020244766026735306,
      -0.02009110152721405,
      0.005397520959377289,
      0.02463778480887413,
      -0.04723917692899704,
      0.0518181212246418,
      0.00037345290184020996,
      -0.04857742786407471,
      -0.03365367650985718,
      0.032968420535326004,
      0.043579746037721634,
      -0.046232663094997406,
      -0.00922909751534462,
      0.03940151259303093,
      -0.04471222311258316,
      0.047903988510370255,
      0.030061159282922745,
      0.009806867688894272,
      0.04747031256556511,
      0.049876462668180466,
      -0.037835218012332916,
      -0.00963766872882843,
      -0.01684204861521721,
      0.022614900022745132,
      0.00368528813123703,
      -0.0339488759636879,
      0.006703030318021774,
      0.04933532699942589,
      0.02001345530152321,
      0.004148680716753006,
      0.02422088012099266,
      -0.015426304191350937,
      0.010755341500043869,
      0.026321422308683395,
      0.018114741891622543,
      -0.026809444651007652,
      0.033910948783159256,
      -0.04487315192818642,
      0.03221549466252327,
      0.007366165518760681,
      0.046167660504579544,
      0.046825628727674484,
      -0.03873034194111824,
      -0.00282331183552742,
      0.02838568016886711,
      -0.015896279364824295,
      0.012395601719617844,
      0.045075226575136185,
      -0.02202354371547699,
      -0.017965152859687805,
      0.028602350503206253,
      -0.01999172568321228,
      -0.02976963482797146,
      -0.02107880264520645,
      0.040487658232450485,
      -0.007754907011985779,
      0.018329206854104996,
      -0.002430025488138199,
      -0.036074623465538025,
      0.016213972121477127,
      0.014311391860246658,
      -0.034055568277835846,
      0.030287105590105057,
      0.020043883472681046,
      0.005241066217422485,
      0.04963825270533562,
      -0.04472295567393303,
      0.008572045713663101,
      0.047007542103528976,
      0.04007493332028389,
      0.047638606280088425,
      -0.0459001362323761,
      0.013986390084028244,
      0.010379482060670853,
      -0.024709228426218033,
      -0.045291561633348465,
      -0.025582989677786827,
      0.0015241242945194244,
      0.015394296497106552,
      0.008315030485391617,
      -0.03846992552280426,
      -0.00837039202451706,
      -0.050080668181180954,
      -0.006777893751859665,
      0.009480658918619156,
      -0.03146155923604965,
      -0.025707745924592018,
      -0.00019155815243721008,
      0.007002793252468109,
      -0.012660108506679535,
      -0.003070671111345291,
      0.0374797023832798,
      0.02469566836953163,
      -0.011603999882936478,
      0.02394060418009758,
      -0.02650076523423195,
      -0.0063888877630233765,
      0.04051798954606056,
      0.019975651055574417,
      -0.0223880372941494,
      -0.0021740086376667023,
      0.04797075316309929,
      0.047572407871484756,
      -0.05395489186048508,
      -0.029131077229976654,
      -0.03617626056075096,
      -0.02267347276210785,
      0.004481513053178787,
      0.0038471519947052,
      0.04507019743323326,
      -0.0046085454523563385,
      0.04685981944203377,
      0.004352189600467682,
      0.0314212329685688,
      0.011680271476507187,
      0.020040515810251236,
      -0.04970796778798103,
      0.048221442848443985,
      0.01990753784775734,
      0.04418455436825752,
      -0.04311567544937134,
      -0.008513785898685455,
      -0.05174899846315384,
      0.00613899901509285,
      0.0455007366836071,
      0.014986742287874222,
      -0.021676480770111084,
      -0.04446341097354889,
      -0.014450665563344955,
      0.050047192722558975,
      0.006839416921138763,
      0.04898884519934654,
      -0.03684234619140625,
      0.03164165839552879,
      -0.049861058592796326,
      0.02359144762158394,
      -0.002799294888973236,
      0.003841061145067215,
      0.0456860326230526,
      -0.017622001469135284,
      0.018309127539396286,
      0.0007664486765861511,
      -0.050643399357795715,
      -0.047862887382507324,
      0.0003569871187210083,
      0.04748206213116646,
      0.040845710784196854,
      -0.0029252320528030396,
      0.0462418831884861,
      -0.04169757291674614,
      0.005435831844806671,
      -0.0029714256525039673
    ],
    [
      -0.0023475512862205505,
      -0.0100637786090374,
      0.05231661722064018,
      0.044705916196107864,
      -0.0452067032456398,
      -0.038149576634168625,
      -0.043704815208911896,
      -0.021111346781253815,
      0.036106523126363754,
      0.016157355159521103,
      0.030482638627290726,
      -0.001183386892080307,
      -0.03469407558441162,
      -6.60531222820282e-05,
      -0.04960782453417778,
      -0.03306356817483902,
      -0.030577175319194794,
      -0.011909633874893188,
      0.00040264055132865906,
      0.04692712798714638,
      0.03331281617283821,
      0.048179369419813156,
      0.00337359681725502,
      0.03854196146130562,
      -0.037509337067604065,
      -0.02228303626179695,
      -0.010129004716873169,
      -0.03517328202724457,
      0.030370961874723434,
      -0.006413865834474564,
      -0.031069675460457802,
      -0.0532832145690918,
      -0.05288450047373772,
      -0.019793100655078888,
      0.016052711755037308,
      0.051602091640233994,
      0.01623249426484108,
      0.01683322712779045,
      0.019441399723291397,
      -0.050847142934799194,
      -0.029957249760627747,
      -0.045701269060373306,
      -0.023287691175937653,
      -0.009388532489538193,
      -0.03559921681880951,
      0.04692854359745979,
      -0.04540006443858147,
      0.007228318601846695,
      -0.030122702941298485,
      -0.019070498645305634,
      0.015850644558668137,
      0.019623469561338425,
      0.053719211369752884,
      0.0005130507051944733,
      0.04799068346619606,
      0.021366942673921585,
      0.004318170249462128,
      0.010505277663469315,
      -0.02499558962881565,
      0.009461645036935806,
      0.039131734520196915,
      -0.004481546580791473,
      0.02116931602358818,
      -0.0504109151661396,
      0.00803465023636818,
      0.01802534982562065,
      -0.00781320407986641,
      0.0192815400660038,
      0.012774411588907242,
      0.019286956638097763,
      -0.01169145479798317,
      -0.01775280386209488,
      -0.006558205932378769,
      -0.011449143290519714,
      -0.002544805407524109,
      0.0012840069830417633,
      -0.04509000852704048,
      -0.0505472831428051,
      -0.022371821105480194,
      0.04423629119992256,
      -0.011771399527788162,
      -0.04768858850002289,
      -0.037420518696308136,
      0.05034476891160011,
      -0.02666269615292549,
      -0.03769673407077789,
      0.01937524601817131,
      0.009744998067617416,
      -0.025855058804154396,
      0.0026257671415805817,
      -0.0476277656853199,
      0.02531420812010765,
      -0.0015376359224319458,
      0.01480289176106453,
      0.016921158879995346,
      0.03737067058682442,
      -0.034797463566064835,
      0.01211705431342125,
      0.05350331589579582,
      0.04206572100520134,
      0.014657389372587204,
      -0.048918306827545166,
      -0.038394100964069366,
      0.005118157714605331,
      0.03828014060854912,
      0.046941500157117844,
      -0.04138994589447975,
      0.024264875799417496,
      0.026430707424879074,
      0.004872739315032959,
      0.02524600550532341,
      -0.004225034266710281,
      0.02078981325030327,
      0.03817019984126091,
      -0.05207842215895653,
      0.022160109132528305,
      0.04365192726254463,
      -0.004229631274938583,
      -0.016778122633695602,
      -0.036043159663677216,
      0.018864016979932785,
      0.02678607776761055,
      0.036569107323884964,
      0.05130545422434807,
      -0.03293784335255623,
      0.046803075820207596,
      0.04645836725831032,
      -0.02770196832716465,
      0.007040392607450485,
      0.05000581964850426,
      0.05112798884510994,
      0.04152956232428551,
      0.037446293979883194,
      -0.03765828162431717,
      0.04917960241436958,
      -0.01043207198381424,
      -0.03600575774908066,
      0.03623465821146965,
      -0.02966631017625332,
      -0.004846949130296707,
      -0.026587488129734993,
      -0.03117111138999462,
      0.030404124408960342,
      0.025285962969064713,
      -0.0027334094047546387,
      0.03662940487265587,
      -0.00543598085641861,
      0.05325054004788399,
      0.0248374305665493,
      -0.003975905478000641,
      -0.05137290060520172,
      0.021715428680181503,
      -0.031875476241111755,
      -0.04187464341521263,
      -0.003536619246006012,
      -0.027461986988782883,
      0.027246106415987015,
      0.03930114582180977,
      -0.02042420580983162,
      -0.046515416353940964,
      0.019367504864931107,
      0.028429877012968063,
      0.005450766533613205,
      0.0060435570776462555,
      0.025374624878168106,
      -0.029220255091786385,
      -0.025451472029089928,
      -0.012395262718200684,
      0.033625129610300064,
      0.04658656194806099,
      0.00610911101102829,
      -0.03510391339659691,
      -0.0014808997511863708,
      0.01306379958987236,
      -0.03535151109099388,
      0.006023488938808441,
      -0.014947284013032913,
      -0.02837572805583477,
      -0.010175611823797226,
      -0.029885223135352135,
      0.017425138503313065,
      0.040911633521318436,
      -0.033107757568359375,
      0.01573648676276207,
      0.027755942195653915,
      -0.039209719747304916,
      -0.025765232741832733,
      0.05385420098900795,
      -0.012281961739063263,
      0.033513572067022324,
      -0.0494169220328331,
      0.012133460491895676,
      0.02822357788681984,
      0.0009075626730918884,
      0.02497893199324608,
      -0.05376070737838745,
      -0.04982324317097664,
      -0.04349368065595627,
      0.04852434620261192,
      -0.0028253868222236633,
      0.04756595566868782,
      0.02489902451634407,
      0.0048862844705581665,
      0.028645899146795273,
      -0.02548987977206707,
      0.022200141102075577,
      0.02210197225213051,
      0.044537510722875595,
      0.003640737384557724,
      0.029177356511354446,
      -0.04022443667054176,
      -0.017728861421346664,
      0.018542926758527756,
      0.032477181404829025,
      0.017994683235883713,
      0.022570308297872543,
      0.005912069231271744,
      0.0389322005212307,
      -0.0367719903588295,
      0.02841312810778618,
      0.03931262716650963,
      -0.013223569840192795,
      0.0033209435641765594,
      -0.0019881203770637512,
      0.04212871566414833,
      -0.005856230854988098,
      -0.037138380110263824,
      0.0519583635032177,
      -0.030919887125492096,
      0.034880880266427994,
      0.022432435303926468,
      0.03166785463690758,
      0.05370519682765007,
      -0.03111703135073185,
      0.017197486013174057,
      -0.04290398210287094,
      -0.0279003344476223,
      0.015330929309129715,
      0.012174393981695175,
      0.02627328410744667,
      -0.0439845472574234,
      0.024211447685956955,
      0.029475320130586624,
      -0.05270865932106972,
      -0.010704413056373596,
      0.04744299128651619,
      -0.025757545605301857,
      0.049830589443445206,
      -0.05352426692843437,
      0.03178374096751213,
      0.0041498467326164246,
      -0.00862056389451027,
      0.030801352113485336,
      -0.045869097113609314,
      -0.04612062871456146,
      0.011358711868524551,
      0.021832596510648727,
      -0.028528768569231033,
      -0.03494315594434738,
      -0.04863333702087402,
      -0.004764299839735031,
      -0.04100876301527023,
      0.03535662218928337,
      0.02213481441140175,
      -0.030491312965750694,
      -0.02506442926824093,
      0.03116481378674507,
      -0.03386017680168152,
      -0.03929230198264122,
      -9.063631296157837e-06,
      0.03094855323433876,
      -0.011431761085987091,
      -0.04179719090461731,
      0.03087731823325157,
      -0.027208881452679634,
      0.019145678728818893,
      -0.004103813320398331,
      -0.01604004204273224,
      -0.0012875869870185852,
      -0.0021340027451515198,
      0.016431260854005814,
      0.01575307920575142,
      0.04895724728703499,
      0.007147610187530518,
      0.05079304799437523,
      -0.005024947226047516,
      0.00751451775431633,
      -0.00044911354780197144,
      -0.03166928142309189,
      0.045212771743535995,
      0.02099982276558876,
      -0.022980399429798126,
      -0.04258432984352112,
      -0.006986625492572784,
      -0.02075311169028282,
      -0.04866867512464523,
      0.02711058035492897,
      -0.015721380710601807,
      -0.015007693320512772,
      0.05365927144885063,
      -0.029925383627414703,
      -0.04811546206474304,
      -0.04867714270949364,
      -0.015517596155405045,
      -0.011271920055150986,
      -0.04086439684033394,
      0.04832280054688454,
      -0.04624325782060623,
      -0.010566957294940948,
      0.03392365202307701,
      0.025908213108778,
      0.012733440846204758,
      -0.005764693021774292,
      -0.016112864017486572,
      -0.022350125014781952,
      -0.03896151855587959,
      0.04508025571703911,
      -0.016612157225608826,
      -0.04596922546625137,
      -0.011270109564065933,
      0.04406629130244255,
      0.04252713546156883,
      -0.0255685206502676,
      -0.03677958995103836,
      -0.026813233271241188,
      0.04305073246359825,
      0.0415777750313282,
      -0.022826004773378372,
      -0.0054471902549266815,
      0.024142112582921982,
      -0.0030277222394943237,
      -0.017230790108442307,
      0.03126610442996025,
      0.028638478368520737,
      -0.04143811762332916,
      0.013979602605104446,
      0.004191648215055466,
      0.04688432440161705,
      0.03568272665143013,
      -0.03097006119787693
    ],
    [
      -0.008760835975408554,
      0.05237530544400215,
      0.01125669851899147,
      -0.0465853288769722,
      -0.0140511654317379,
      0.01503303274512291,
      0.0172419436275959,
      -0.015063401311635971,
      0.03166625276207924,
      0.02393103763461113,
      -0.018875326961278915,
      -0.0005179643630981445,
      0.003978889435529709,
      0.0066809505224227905,
      -0.019255992025136948,
      0.002691030502319336,
      0.0035233572125434875,
      0.034051042050123215,
      0.013543296605348587,
      0.023824770003557205,
      -0.011459197849035263,
      0.013948168605566025,
      0.007809564471244812,
      -0.033470381051301956,
      -0.033352844417095184,
      0.0015086792409420013,
      -2.4165958166122437e-05,
      -0.05230345204472542,
      0.007986001670360565,
      0.003740563988685608,
      0.015650976449251175,
      -0.05282135307788849,
      -0.0038502104580402374,
      -0.04539914056658745,
      0.03918858990073204,
      -0.043223246932029724,
      0.04081541672348976,
      0.04716213420033455,
      0.027070488780736923,
      -0.04037654027342796,
      -0.03503916412591934,
      -0.029357722029089928,
      -0.03667539358139038,
      -0.03172798454761505,
      -0.03919479623436928,
      0.04190981760621071,
      -0.0337257981300354,
      -0.004097070544958115,
      0.030996259301900864,
      -0.025743691250681877,
      -0.014399595558643341,
      0.013766836374998093,
      0.04933765158057213,
      -0.03998050093650818,
      -0.00477348268032074,
      -0.03750905394554138,
      0.011059623211622238,
      -0.03922261670231819,
      0.028869833797216415,
      0.019563931971788406,
      0.008642520755529404,
      -0.003367796540260315,
      -0.02518431656062603,
      0.03288504108786583,
      0.025977235287427902,
      -0.04812529310584068,
      -0.047282733023166656,
      0.048978690057992935,
      0.029836643487215042,
      -0.01908412203192711,
      -0.026141950860619545,
      -0.017575588077306747,
      0.05089389160275459,
      -0.04851962998509407,
      -0.019859246909618378,
      0.0047659240663051605,
      0.02415444329380989,
      -0.011255521327257156,
      -0.01124197244644165,
      -0.03921724855899811,
      -0.03252778947353363,
      -0.023767227306962013,
      -0.017991337925195694,
      -0.02110936865210533,
      -0.0038645118474960327,
      0.015681054443120956,
      -0.024408461526036263,
      -0.020633503794670105,
      -0.04158169403672218,
      -0.029675154015421867,
      -0.02230110764503479,
      -0.03391512483358383,
      -0.02065497264266014,
      0.03829890862107277,
      0.013854186981916428,
      -0.001659482717514038,
      0.027383897453546524,
      -0.03336116671562195,
      -0.05026593059301376,
      -0.03102613240480423,
      0.053304705768823624,
      -0.04068092629313469,
      0.04617372527718544,
      -0.05279446393251419,
      -0.05002344772219658,
      0.006614465266466141,
      -0.04129801318049431,
      0.04980689659714699,
      -0.036512769758701324,
      0.030637096613645554,
      -0.025184324011206627,
      0.0006707534193992615,
      0.006217092275619507,
      -0.010230239480733871,
      -0.005235511809587479,
      -0.010029714554548264,
      -0.012693412601947784,
      0.029799286276102066,
      0.043864790350198746,
      0.022905003279447556,
      -0.014067921787500381,
      0.04040611907839775,
      0.030578624457120895,
      -0.030000384896993637,
      0.03385762497782707,
      -0.01222558319568634,
      -0.01591595634818077,
      -0.02112719789147377,
      -0.014758355915546417,
      0.05264342203736305,
      0.027120281010866165,
      -0.04796192795038223,
      0.017907675355672836,
      0.0262155644595623,
      -0.05327017977833748,
      0.016154292970895767,
      -0.046062640845775604,
      0.053924087435007095,
      0.04921230301260948,
      -0.03565207123756409,
      0.03186369314789772,
      -0.0040647126734256744,
      -0.017310362309217453,
      -0.02818243019282818,
      0.043679360300302505,
      0.044293563812971115,
      -0.04777127504348755,
      0.0057572126388549805,
      -0.007291555404663086,
      0.034544993191957474,
      0.023133810609579086,
      -0.029981326311826706,
      -0.014728009700775146,
      0.016985293477773666,
      -0.03376484289765358,
      0.03185354545712471,
      -0.011626951396465302,
      -0.020185556262731552,
      -0.03707345202565193,
      0.04999508336186409,
      -0.03753577917814255,
      0.010658565908670425,
      0.0056955888867378235,
      0.023009341210126877,
      -0.026918897405266762,
      -0.006475985050201416,
      -0.0019181407988071442,
      -0.04786276817321777,
      0.04263510927557945,
      0.04265294596552849,
      0.005636498332023621,
      -0.0487353652715683,
      -0.01792202517390251,
      0.02306048944592476,
      -0.003182418644428253,
      -0.0018007680773735046,
      -0.014292232692241669,
      0.04646627977490425,
      -0.04311477765440941,
      0.02868974581360817,
      -0.002141006290912628,
      -0.01580950990319252,
      0.049815405160188675,
      0.053084779530763626,
      -0.014777909964323044,
      0.006064213812351227,
      -0.04281426593661308,
      0.03688959404826164,
      -0.0025844350457191467,
      -0.03448329120874405,
      -0.035998258739709854,
      -0.005584951490163803,
      0.02397359535098076,
      0.0240134559571743,
      0.02151469513773918,
      0.02218395099043846,
      0.01454494521021843,
      -0.014153659343719482,
      0.044955383986234665,
      0.007661223411560059,
      0.01545032486319542,
      -0.004245869815349579,
      0.04325206205248833,
      -0.0032961368560791016,
      -0.01687496155500412,
      0.05117509886622429,
      -0.03247382864356041,
      0.01880141720175743,
      -0.04110940545797348,
      0.03578045591711998,
      -0.04003167524933815,
      -0.03733471781015396,
      0.0381958968937397,
      0.018941279500722885,
      0.02356645092368126,
      -0.03902461752295494,
      -0.03643474727869034,
      -0.03003387339413166,
      0.04836110398173332,
      0.011792700737714767,
      -0.008328672498464584,
      -0.03428638353943825,
      0.013542693108320236,
      -0.027613798156380653,
      -0.008892707526683807,
      -0.0026199407875537872,
      0.038201626390218735,
      -0.04475389048457146,
      0.04560054466128349,
      -0.0007691830396652222,
      -0.016278445720672607,
      0.018016565591096878,
      -0.03261920064687729,
      -0.03907403722405434,
      0.007848843932151794,
      0.032730381935834885,
      0.020336057990789413,
      -0.010100144892930984,
      -0.02646990865468979,
      0.03849291428923607,
      -0.04572299122810364,
      0.02053273841738701,
      -0.033073969185352325,
      -0.04589433595538139,
      -0.03132940083742142,
      0.026354696601629257,
      0.025375399738550186,
      0.023781824856996536,
      -0.04701117426156998,
      -0.04515980929136276,
      0.02888989821076393,
      0.0330234058201313,
      -0.048634305596351624,
      -0.04963446035981178,
      -0.018498800694942474,
      -0.028223076835274696,
      -0.005899600684642792,
      0.011203501373529434,
      -0.028234047815203667,
      -0.04995947703719139,
      -0.027243850752711296,
      -0.03491837903857231,
      0.011952873319387436,
      0.012112084776163101,
      0.004575818777084351,
      -0.004785481840372086,
      0.028224121779203415,
      0.022343885153532028,
      0.011169139295816422,
      -0.03310393542051315,
      0.05392169579863548,
      0.00034296512603759766,
      0.0019002929329872131,
      0.015869636088609695,
      -0.011737853288650513,
      0.053126346319913864,
      -0.029959654435515404,
      -0.03995326906442642,
      0.01766163483262062,
      -0.04832601547241211,
      0.004324518144130707,
      0.02879142388701439,
      0.03455532714724541,
      -0.010586269199848175,
      -0.002235718071460724,
      0.03199015185236931,
      -0.017322536557912827,
      -0.0414278507232666,
      0.028434190899133682,
      0.040360379964113235,
      0.01943952962756157,
      -0.04171808063983917,
      0.04019519314169884,
      0.01430455967783928,
      -0.034301482141017914,
      0.019304540008306503,
      0.05122313275933266,
      -0.01559767872095108,
      0.04349125549197197,
      -0.0398598238825798,
      -0.02551564946770668,
      -0.031964704394340515,
      -0.05356305092573166,
      0.00439351424574852,
      0.03575190529227257,
      -0.026473522186279297,
      -0.039646171033382416,
      0.026711929589509964,
      -0.006760437041521072,
      -0.009556304663419724,
      -0.04304392635822296,
      -0.02852512151002884,
      -0.021348007023334503,
      0.04551895335316658,
      0.05305134132504463,
      -0.053983744233846664,
      0.012453895062208176,
      0.05025576427578926,
      -0.005743701010942459,
      -0.015669826418161392,
      -0.008076686412096024,
      -0.024717483669519424,
      0.017001140862703323,
      -0.02913581021130085,
      -0.026056457310914993,
      0.0341680608689785,
      0.019050706177949905,
      -0.016485165804624557,
      0.0368485189974308,
      0.030860725790262222,
      -0.020854782313108444,
      -0.002873104065656662,
      -0.031268469989299774,
      0.01721889153122902,
      0.034017276018857956,
      0.049282256513834,
      0.054069895297288895,
      0.0010585896670818329,
      -0.0323575884103775,
      0.027612727135419846
    ],
    [
      -0.04041304811835289,
      0.053353216499090195,
      -0.00035510584712028503,
      -0.01435873657464981,
      0.00783621147274971,
      0.02975628897547722,
      0.02706783637404442,
      -0.005420703440904617,
      0.006800450384616852,
      -0.00033015012741088867,
      0.03036094829440117,
      0.04263763502240181,
      -0.02701384946703911,
      0.024432536214590073,
      -0.03971201926469803,
      0.0350055955350399,
      -0.047293465584516525,
      0.04778303578495979,
      0.031848255544900894,
      -0.020226415246725082,
      -0.010065782815217972,
      0.03611236438155174,
      0.05178413167595863,
      0.02384413406252861,
      -0.017512045800685883,
      0.010854821652173996,
      0.022728536278009415,
      -0.0011079832911491394,
      0.0020731687545776367,
      0.0006876587867736816,
      0.03184988722205162,
      0.03883093222975731,
      0.007090803235769272,
      -0.05293162539601326,
      0.0510440431535244,
      0.024539764970541,
      0.04087695851922035,
      -0.014063764363527298,
      0.04873910918831825,
      -0.052832186222076416,
      0.014361899346113205,
      0.004191126674413681,
      0.011928770691156387,
      0.025114569813013077,
      -0.028169889003038406,
      -0.02094389498233795,
      0.04794571176171303,
      -0.013983428478240967,
      0.03942475840449333,
      0.010561365634202957,
      0.022205624729394913,
      0.052388835698366165,
      -0.03700071573257446,
      -0.012020200490951538,
      0.03974262252449989,
      -0.030667291954159737,
      -0.006834276020526886,
      -0.003157094120979309,
      -0.010222036391496658,
      -0.0402090884745121,
      0.0024061426520347595,
      0.011939186602830887,
      0.040127452462911606,
      0.002263445407152176,
      0.031696390360593796,
      0.018260564655065536,
      -0.011179450899362564,
      0.0026496686041355133,
      -0.051846638321876526,
      -0.027004830539226532,
      -0.02242954820394516,
      0.008007276803255081,
      0.01318974420428276,
      0.04856622591614723,
      0.04984039440751076,
      0.028229128569364548,
      -0.00718698650598526,
      -0.011868387460708618,
      0.041177187114953995,
      -0.02743455581367016,
      -0.042977940291166306,
      -0.030182303860783577,
      0.027620535343885422,
      -0.03371604532003403,
      -0.031844720244407654,
      -0.003340676426887512,
      0.009374324232339859,
      -0.0210886113345623,
      0.04434506222605705,
      0.04231589660048485,
      -0.04353967308998108,
      0.016886834055185318,
      0.011916089802980423,
      0.010153483599424362,
      0.04864676669239998,
      0.005688223987817764,
      -0.025020500645041466,
      -0.018186889588832855,
      0.024212289601564407,
      0.005631450563669205,
      -0.019633706659078598,
      -0.04403839260339737,
      -0.0010550469160079956,
      -0.03131309151649475,
      -0.02124689146876335,
      0.026392493396997452,
      -0.010986164212226868,
      -0.005512841045856476,
      -0.02415010705590248,
      -0.00244918093085289,
      0.04932735487818718,
      0.028010312467813492,
      0.028520245105028152,
      -0.04213720187544823,
      -0.029323715716600418,
      -0.04688170552253723,
      -0.05139356851577759,
      -0.04904528707265854,
      0.030277322977781296,
      0.04126551374793053,
      -0.03993535414338112,
      0.05338612571358681,
      -0.03379344195127487,
      -0.022602874785661697,
      0.009812738746404648,
      -0.010689929127693176,
      -0.029221581295132637,
      0.024265233427286148,
      0.02070014551281929,
      -0.0014548525214195251,
      0.04705318436026573,
      0.036757539957761765,
      0.03435507044196129,
      0.020448770374059677,
      -0.014333795756101608,
      0.002327345311641693,
      0.03243733569979668,
      -0.03877442702651024,
      0.02348996326327324,
      0.008570145815610886,
      -0.013120252639055252,
      0.05196301266551018,
      0.017741505056619644,
      0.025240663439035416,
      0.05011363700032234,
      -0.007411006838083267,
      0.0007902905344963074,
      -0.027473371475934982,
      0.046202775090932846,
      0.022176694124937057,
      0.045064527541399,
      0.030401404947042465,
      -0.02099662646651268,
      -0.014469224959611893,
      0.0429619736969471,
      -0.032799188047647476,
      0.053347084671258926,
      -0.033121850341558456,
      0.0401509590446949,
      0.0008145682513713837,
      0.032486770302057266,
      -0.03886040672659874,
      -0.0049080438911914825,
      -0.014447368681430817,
      0.007715810090303421,
      0.016372162848711014,
      -0.009858034551143646,
      0.02096843346953392,
      0.042469579726457596,
      0.03816678002476692,
      -0.02714604139328003,
      0.03687633201479912,
      -0.0006873570382595062,
      0.043107058852910995,
      0.050219204276800156,
      -0.02301226742565632,
      -0.04051004350185394,
      0.0327853225171566,
      0.019246723502874374,
      0.01728193834424019,
      -0.05167127400636673,
      -0.020473014563322067,
      0.04927212372422218,
      -0.010161083191633224,
      -0.016704756766557693,
      -0.04582589492201805,
      0.049913447350263596,
      0.037383828312158585,
      0.024810906499624252,
      0.031511340290308,
      -0.0540098175406456,
      -0.029855212196707726,
      0.012484852224588394,
      0.042056579142808914,
      0.026055846363306046,
      -0.01490868628025055,
      -0.049381986260414124,
      -0.053294695913791656,
      -0.021774839609861374,
      0.022177521139383316,
      -0.012602221220731735,
      -0.03835150599479675,
      -0.042997103184461594,
      -0.005000405013561249,
      0.04654976353049278,
      -0.012708377093076706,
      -0.01999727264046669,
      0.004932470619678497,
      0.03272634372115135,
      0.023446086794137955,
      -0.0005807802081108093,
      0.008347172290086746,
      -0.02571794018149376,
      0.01501758024096489,
      0.013350959867238998,
      0.038675595074892044,
      0.014833364635705948,
      0.0015460141003131866,
      -0.014874622225761414,
      0.022273261100053787,
      -0.040961772203445435,
      -0.0031907260417938232,
      -0.02907445654273033,
      -0.004183061420917511,
      -0.04206620901823044,
      -0.043395452201366425,
      -0.04450749605894089,
      0.042839255183935165,
      -0.04068717733025551,
      -0.042365532368421555,
      -0.02733290009200573,
      0.04596902057528496,
      -0.048875488340854645,
      -0.003308672457933426,
      -0.0165216326713562,
      0.028395969420671463,
      -0.03086603246629238,
      0.004317328333854675,
      -0.04696929454803467,
      0.008172880858182907,
      0.03926461562514305,
      0.031525369733572006,
      -0.017939940094947815,
      0.04248109832406044,
      0.04684731736779213,
      0.03790370747447014,
      -0.03714732825756073,
      0.008644673973321915,
      0.015014689415693283,
      -0.03747108578681946,
      -0.050225913524627686,
      -0.014715000987052917,
      -0.007461000233888626,
      -0.017565064132213593,
      0.005622178316116333,
      0.04576422646641731,
      -0.04305810481309891,
      0.012346912175416946,
      0.02699795737862587,
      0.022037792950868607,
      0.051934901624917984,
      -0.043167658150196075,
      -0.01678328588604927,
      0.007685072720050812,
      -0.046257805079221725,
      -0.003763411194086075,
      -0.019167404621839523,
      -0.017267420887947083,
      -0.048269618302583694,
      -0.038692981004714966,
      0.0371922142803669,
      0.049241047352552414,
      0.03939197584986687,
      0.001195080578327179,
      -0.03461158275604248,
      0.02301952615380287,
      0.0035904794931411743,
      -0.04380807653069496,
      0.016607675701379776,
      0.007872838526964188,
      -0.04360098019242287,
      -0.011665690690279007,
      0.011614624410867691,
      0.01713361218571663,
      0.017800014466047287,
      0.02681344375014305,
      -0.039031945168972015,
      -0.03854219615459442,
      -0.018397144973278046,
      0.02342098578810692,
      -0.04814523458480835,
      0.0008120909333229065,
      0.003811582922935486,
      -0.02352696843445301,
      -0.03238561749458313,
      -0.029248682782053947,
      0.0063926950097084045,
      -0.011986460536718369,
      -0.014135759323835373,
      -0.010436702519655228,
      0.018889930099248886,
      -0.0438980832695961,
      -0.03702513873577118,
      0.011993322521448135,
      0.04522956535220146,
      -0.014097258448600769,
      0.033331070095300674,
      -0.006865739822387695,
      -0.02349557913839817,
      -0.023953737691044807,
      0.0035140924155712128,
      -0.004912830889225006,
      -0.023570632562041283,
      -0.04217970743775368,
      0.049622680991888046,
      -0.021719396114349365,
      0.007081102579832077,
      -0.04334095120429993,
      0.004616990685462952,
      -0.03153413534164429,
      -0.02594798617064953,
      0.03293265774846077,
      -0.015834078192710876,
      0.05071980878710747,
      -0.025473549962043762,
      -0.006895866245031357,
      -0.026832809671759605,
      0.037488844245672226,
      -0.04376344755291939,
      -0.04900918900966644,
      -0.04503583908081055,
      0.03246008977293968,
      -0.023618189617991447,
      -0.022445064038038254,
      0.04759983345866203,
      -0.01638644188642502,
      -0.021975450217723846,
      0.012533191591501236,
      0.02850807085633278,
      0.046415772289037704
    ],
    [
      0.015594568103551865,
      0.04541352763772011,
      0.03312372788786888,
      0.01707248017191887,
      -0.030264176428318024,
      -0.018669135868549347,
      -0.042186420410871506,
      0.04930630698800087,
      0.04222199693322182,
      -0.033079180866479874,
      -0.05395402014255524,
      0.03399555757641792,
      0.02896849438548088,
      -0.03739104047417641,
      -0.016793541610240936,
      0.011546652764081955,
      -0.01857326179742813,
      0.004168950021266937,
      0.03920159116387367,
      0.05365142598748207,
      0.03633173927664757,
      0.006975743919610977,
      0.04929826781153679,
      0.047605011612176895,
      -0.02149352803826332,
      0.043753113597631454,
      -0.05334721878170967,
      0.04555489495396614,
      0.030071880668401718,
      0.026443790644407272,
      -0.024050751700997353,
      0.03254634514451027,
      -0.02225736528635025,
      -0.040214650332927704,
      0.016424957662820816,
      -0.04317300766706467,
      -0.0015494301915168762,
      -0.002981375902891159,
      -0.015803616493940353,
      -0.005298495292663574,
      -0.022962480783462524,
      0.003281760960817337,
      -0.024912476539611816,
      -0.016772199422121048,
      -0.016381122171878815,
      0.03498101606965065,
      -0.009466007351875305,
      0.03569522127509117,
      0.042175937443971634,
      0.04515603557229042,
      0.012130539864301682,
      0.004869688302278519,
      -0.04054109379649162,
      -0.015073467046022415,
      0.0012021735310554504,
      -0.01575804129242897,
      -0.021611005067825317,
      -0.03715427964925766,
      0.008516531437635422,
      0.03649366274476051,
      0.04831758514046669,
      -0.016508419066667557,
      0.040537867695093155,
      0.0089910589158535,
      0.03705104812979698,
      0.002033822238445282,
      0.049691688269376755,
      0.0480063371360302,
      0.04749244824051857,
      0.03907402977347374,
      0.0021356791257858276,
      -0.01573411375284195,
      -0.02252625674009323,
      0.041006918996572495,
      -0.021761152893304825,
      0.013381820172071457,
      0.02377442643046379,
      -0.04379674792289734,
      -0.03707963973283768,
      0.034448448568582535,
      0.04936743900179863,
      0.009317364543676376,
      -0.0018761008977890015,
      0.004085484892129898,
      -0.03764558583498001,
      0.02404174581170082,
      -0.030051257461309433,
      -0.03230373561382294,
      -0.04060778766870499,
      -0.0086737722158432,
      0.041713450103998184,
      -0.01925792545080185,
      0.023738916963338852,
      -0.009588703513145447,
      0.037061724811792374,
      -0.04945449158549309,
      0.024791862815618515,
      0.03290967270731926,
      -0.02998221106827259,
      0.025821220129728317,
      -0.03158067911863327,
      -0.04289734736084938,
      0.03773657605051994,
      -0.0017705261707305908,
      0.016173962503671646,
      -0.02301839552819729,
      -0.030438655987381935,
      0.051723700016736984,
      -0.02931251749396324,
      -0.017709817737340927,
      0.022408340126276016,
      0.031219247728586197,
      -0.021797314286231995,
      0.0027765966951847076,
      -0.028499100357294083,
      0.01632184162735939,
      0.046388719230890274,
      0.05316251888871193,
      0.021962974220514297,
      0.01850394532084465,
      -0.012524887919425964,
      0.0215863399207592,
      0.017222080379724503,
      0.03608682379126549,
      -0.0003633275628089905,
      -0.026740068569779396,
      0.03395368531346321,
      0.039463672786951065,
      -0.02987254410982132,
      -4.863739013671875e-05,
      0.04385022446513176,
      -0.040673524141311646,
      0.017654944211244583,
      -0.054231271147727966,
      -0.05413933843374252,
      -0.021895751357078552,
      0.02091216668486595,
      -0.006504137068986893,
      -0.02261938899755478,
      -0.011527441442012787,
      -0.029386917129158974,
      -0.018385179340839386,
      -0.035770103335380554,
      -0.052757199853658676,
      -0.04270718991756439,
      -0.05311550945043564,
      0.021901357918977737,
      0.03968315199017525,
      0.008278857916593552,
      0.0345483236014843,
      0.03124650940299034,
      0.04909138008952141,
      0.01994151994585991,
      -0.0033470429480075836,
      0.01981401816010475,
      -0.040945664048194885,
      -0.051624998450279236,
      0.05052750185132027,
      0.02100929245352745,
      -0.02722141705453396,
      0.04253368452191353,
      0.04967338219285011,
      -0.019977450370788574,
      0.015735294669866562,
      -0.02394864894449711,
      0.010986048728227615,
      0.03524501994252205,
      0.004516825079917908,
      0.024707812815904617,
      0.05135469511151314,
      5.0749629735946655e-05,
      0.031611692160367966,
      -0.010535862296819687,
      0.009856682270765305,
      0.0037981942296028137,
      0.021766450256109238,
      0.03131181374192238,
      -0.05219998583197594,
      0.03306855633854866,
      0.030179817229509354,
      -0.022659767419099808,
      0.015512894839048386,
      0.03022099658846855,
      0.03865170106291771,
      0.013185065239667892,
      0.004995528608560562,
      0.0071625374257564545,
      0.04652838781476021,
      0.04320239648222923,
      -0.009678520262241364,
      -0.02947103977203369,
      0.050282787531614304,
      -0.03541114181280136,
      -0.05312775447964668,
      -0.022069599479436874,
      -0.03044726699590683,
      0.030401911586523056,
      -0.0365462601184845,
      -0.010524313896894455,
      -0.0201210156083107,
      -0.010217219591140747,
      0.041507456451654434,
      0.03570868447422981,
      0.0509551577270031,
      0.03902151808142662,
      0.04934200271964073,
      0.008357640355825424,
      -0.025064928457140923,
      0.004980187863111496,
      -0.01181342825293541,
      0.03014431521296501,
      -0.039299000054597855,
      0.02847546711564064,
      0.01699444279074669,
      0.010848861187696457,
      0.026315253227949142,
      0.052174974232912064,
      0.0078081414103507996,
      0.04400597885251045,
      -0.03111572563648224,
      -0.021062761545181274,
      0.014230173081159592,
      0.03272750601172447,
      -0.010093484073877335,
      -0.02614348940551281,
      -0.015329580754041672,
      -0.05295432358980179,
      -0.03382671996951103,
      -0.03046400472521782,
      -0.008445657789707184,
      -0.05013926327228546,
      0.03165721520781517,
      -0.04772939532995224,
      -0.04878973215818405,
      -0.019250214099884033,
      0.0006671659648418427,
      0.03893490508198738,
      0.023422937840223312,
      -0.0019364766776561737,
      0.013818223029375076,
      -0.037721484899520874,
      -0.03775109350681305,
      0.036760564893484116,
      0.022898156195878983,
      0.0443047396838665,
      0.009101558476686478,
      -0.0013903938233852386,
      0.03185218945145607,
      0.007316172122955322,
      0.002578169107437134,
      -0.03773726150393486,
      0.016967426985502243,
      0.033551108092069626,
      -0.053603801876306534,
      -0.005829326808452606,
      -0.01579609513282776,
      0.038061562925577164,
      -0.04354556277394295,
      0.016175981611013412,
      -0.05368464067578316,
      -0.042917292565107346,
      0.029572952538728714,
      -0.04011034965515137,
      -0.04841291904449463,
      0.00023306533694267273,
      -0.050232719630002975,
      -0.010152924805879593,
      -0.009659778326749802,
      0.044438038021326065,
      -0.03534165024757385,
      -0.02245473489165306,
      0.04464416578412056,
      -0.007433272898197174,
      0.029314469546079636,
      0.007634419947862625,
      0.011456217616796494,
      0.043245185166597366,
      -0.043788209557533264,
      0.0002595372498035431,
      0.032059360295534134,
      -0.0509350411593914,
      0.012663614004850388,
      -0.051756542176008224,
      -0.030760174617171288,
      -0.03459865599870682,
      -0.01579609513282776,
      0.03759448602795601,
      -0.050482627004384995,
      -0.052278198301792145,
      -0.04255058616399765,
      -0.024226775392889977,
      -0.008456721901893616,
      -0.004498545080423355,
      0.03865976259112358,
      0.00755193829536438,
      0.0425516702234745,
      -0.05401917174458504,
      0.0011070780456066132,
      0.022768940776586533,
      -0.026061369106173515,
      0.0377056859433651,
      0.018383514136075974,
      -0.027223387733101845,
      0.010064277797937393,
      -0.04809586703777313,
      0.010933447629213333,
      0.0006362870335578918,
      0.015784095972776413,
      -0.032757390290498734,
      0.04218989238142967,
      -0.04760558158159256,
      0.022570405155420303,
      0.021588165313005447,
      -0.02619621716439724,
      0.03895893320441246,
      -0.013809461146593094,
      0.025462966412305832,
      0.04993734881281853,
      0.04950586333870888,
      -0.04751890152692795,
      -0.04465572535991669,
      -0.0127265565097332,
      -0.04043242335319519,
      0.006681699305772781,
      -0.015447836369276047,
      0.028627406805753708,
      -0.0038671158254146576,
      -0.036115385591983795,
      -0.04838204011321068,
      -0.0427652932703495,
      -0.01623915135860443,
      -0.017936255782842636,
      -0.04317186027765274,
      0.04943050071597099,
      -0.0483703576028347,
      -0.019934609532356262,
      0.046706173568964005,
      -0.04264722764492035,
      0.03199038282036781,
      0.02869083359837532
    ],
    [
      -0.052515968680381775,
      -0.042913638055324554,
      -0.017161056399345398,
      0.04221092537045479,
      0.03598897531628609,
      -0.046924859285354614,
      -0.045199595391750336,
      0.00857045128941536,
      -0.03167277202010155,
      0.03789980337023735,
      0.042082685977220535,
      0.020125772804021835,
      0.011420082300901413,
      -0.04194378852844238,
      0.025641050189733505,
      -0.02181977406144142,
      0.01998547837138176,
      -0.023376591503620148,
      0.04090430960059166,
      0.05070282146334648,
      -0.006037428975105286,
      0.028589051216840744,
      0.032997000962495804,
      -0.04740666598081589,
      0.013197485357522964,
      0.010804418474435806,
      -0.015739325433969498,
      -0.03134458139538765,
      -0.0020545758306980133,
      0.03247932717204094,
      0.023779425770044327,
      -0.0200955793261528,
      -0.03127806633710861,
      0.005617201328277588,
      0.03829306736588478,
      -0.04100219905376434,
      0.014316041022539139,
      0.028293471783399582,
      0.045939575880765915,
      -0.04965532198548317,
      0.003447793424129486,
      0.040333058685064316,
      -0.02168414741754532,
      -0.03938819095492363,
      0.0014942511916160583,
      -0.046044543385505676,
      -0.03828044980764389,
      0.05164450779557228,
      -0.04274950921535492,
      -0.038748711347579956,
      -0.00980299711227417,
      0.021261516958475113,
      0.04031101241707802,
      0.05397849157452583,
      -0.05187344178557396,
      0.0013194754719734192,
      -0.002363860607147217,
      0.012714359909296036,
      0.01406409963965416,
      -0.039142392575740814,
      0.008519519120454788,
      -0.0018746443092823029,
      -0.04970636963844299,
      -0.0014995187520980835,
      0.03112092986702919,
      0.033469308167696,
      -0.006934646517038345,
      -0.014246705919504166,
      -0.05056636780500412,
      0.004443008452653885,
      0.0395544059574604,
      -0.044404707849025726,
      0.005745351314544678,
      0.04174147918820381,
      -0.031374312937259674,
      0.039526086300611496,
      -0.04543595016002655,
      -0.014293201267719269,
      -0.023175721988081932,
      0.031653229147195816,
      0.044760461896657944,
      0.03921785578131676,
      0.012566778808832169,
      0.00830843672156334,
      -0.010383997112512589,
      -0.04489460214972496,
      -0.03249841928482056,
      0.032142627984285355,
      0.042271506041288376,
      0.005418781191110611,
      -0.024347510188817978,
      0.014443691819906235,
      0.010891210287809372,
      -0.049639515578746796,
      -0.04730433225631714,
      -0.03487354516983032,
      -0.04275061562657356,
      -0.04960498586297035,
      -0.017778929322957993,
      -0.03666853904724121,
      -0.036469753831624985,
      0.010341215878725052,
      -0.004322301596403122,
      -0.047560904175043106,
      -0.0018963217735290527,
      0.02924613282084465,
      -0.04456471651792526,
      0.024315867573022842,
      -0.04185497760772705,
      0.004652302712202072,
      0.019669797271490097,
      0.04592890664935112,
      0.029937293380498886,
      -0.02286073938012123,
      -0.018894195556640625,
      -0.001869339495897293,
      0.03801851347088814,
      0.049381088465452194,
      -0.008933335542678833,
      -0.033286817371845245,
      0.027890343219041824,
      0.02386460080742836,
      -0.032695069909095764,
      0.044506680220365524,
      -0.015189539641141891,
      0.00016031414270401,
      0.052517976611852646,
      -0.0035686828196048737,
      0.012710634618997574,
      0.02718592807650566,
      0.03606511279940605,
      0.04411808028817177,
      0.0007627122104167938,
      -0.031181752681732178,
      -0.012883774936199188,
      0.021752241998910904,
      -0.046918801963329315,
      -0.026489265263080597,
      0.021899539977312088,
      -0.00756339356303215,
      0.010415453463792801,
      0.01673894003033638,
      -0.043780166655778885,
      -0.05349953472614288,
      -0.009773265570402145,
      -0.03815443068742752,
      -0.01677250862121582,
      0.043577875941991806,
      0.010644014924764633,
      0.010872844606637955,
      0.03826729580760002,
      0.03859291598200798,
      -0.025292128324508667,
      0.04365042224526405,
      -0.0006301738321781158,
      0.05047996714711189,
      0.009332370012998581,
      -0.0332987979054451,
      0.025395918637514114,
      -0.013249162584543228,
      -0.022968627512454987,
      -0.040276579558849335,
      -0.029179319739341736,
      -0.025629492476582527,
      0.052389126271009445,
      -0.004739359021186829,
      0.017809126526117325,
      0.023815322667360306,
      0.02548598125576973,
      0.023698177188634872,
      -0.029230037704110146,
      0.04889119043946266,
      0.020745251327753067,
      -0.019658520817756653,
      -0.04294421151280403,
      -0.041549064218997955,
      -0.022717706859111786,
      -0.017583876848220825,
      -0.03724230080842972,
      0.007100135087966919,
      -0.014932870864868164,
      0.03611749783158302,
      -0.006864156574010849,
      0.04852871969342232,
      0.0424298532307148,
      0.008330393582582474,
      -0.012142319232225418,
      0.010648813098669052,
      0.004487093538045883,
      0.022051353007555008,
      0.02538176253437996,
      0.014156807214021683,
      0.010669637471437454,
      0.025357622653245926,
      0.05178732052445412,
      -0.026181289926171303,
      0.02453633025288582,
      0.021903183311223984,
      0.01289014145731926,
      0.009119916707277298,
      -0.043531790375709534,
      0.021225418895483017,
      -0.04925297573208809,
      -0.053274963051080704,
      -0.04196961969137192,
      0.042883168905973434,
      0.022676710039377213,
      0.029300730675458908,
      -0.052782297134399414,
      0.04438207671046257,
      -0.029293032363057137,
      0.03862844780087471,
      0.035927947610616684,
      0.022555645555257797,
      -0.017016977071762085,
      -0.0036189965903759003,
      -0.019110098481178284,
      0.002471890300512314,
      -0.03862086310982704,
      -0.038046032190322876,
      0.03229239210486412,
      -0.03022472746670246,
      -0.045119039714336395,
      -0.025484805926680565,
      0.039347145706415176,
      0.0115291066467762,
      -0.035018615424633026,
      -0.02890527993440628,
      0.04480848088860512,
      -0.04405492544174194,
      -0.05162728577852249,
      0.047389622777700424,
      0.010732453316450119,
      -0.03221248462796211,
      -0.003543037921190262,
      -0.02842283993959427,
      -0.03167465329170227,
      -0.022670388221740723,
      -0.019315440207719803,
      -0.023345397785305977,
      -0.00031112879514694214,
      -0.019052118062973022,
      0.04417465254664421,
      0.03143468126654625,
      -0.03291352093219757,
      0.031989309936761856,
      0.0165809728205204,
      0.013406123965978622,
      -0.03965489938855171,
      0.04543304815888405,
      -0.03578276187181473,
      0.045458946377038956,
      -0.02843528427183628,
      0.0063317567110061646,
      0.018483709543943405,
      0.05157802626490593,
      0.03555768355727196,
      -0.037636738270521164,
      0.018140394240617752,
      0.0272224061191082,
      0.030119311064481735,
      -0.018583696335554123,
      -0.010412618517875671,
      0.029028568416833878,
      -0.041111379861831665,
      0.023254696279764175,
      -0.00313403457403183,
      0.052374500781297684,
      -0.016080383211374283,
      -0.04723409563302994,
      0.039467837661504745,
      0.05123165622353554,
      -0.05238419771194458,
      -0.002327173948287964,
      -0.04106304794549942,
      0.0056531913578510284,
      0.03313254192471504,
      -0.04213116317987442,
      0.036856960505247116,
      0.029329907149076462,
      -0.017910994589328766,
      -0.023119496181607246,
      -0.03980019688606262,
      0.018241193145513535,
      0.03788134083151817,
      -0.04168437793850899,
      -0.005482494831085205,
      0.027287665754556656,
      0.015707004815340042,
      0.03749882057309151,
      -0.0018694549798965454,
      -0.025746820494532585,
      0.04975583031773567,
      0.04192883148789406,
      -0.0034495219588279724,
      0.028632674366235733,
      -0.016145795583724976,
      0.016728442162275314,
      -0.03904582932591438,
      0.014854323118925095,
      -0.044432152062654495,
      -0.013869911432266235,
      -0.03290000557899475,
      0.007063265889883041,
      0.020532961934804916,
      0.008866693824529648,
      0.04612385854125023,
      -0.02396571636199951,
      0.001387912780046463,
      -0.0395691804587841,
      0.024478528648614883,
      -0.023684494197368622,
      -0.030338196083903313,
      -0.009409457445144653,
      -0.0044545941054821014,
      0.011380527168512344,
      0.028011109679937363,
      0.0023348666727542877,
      0.05100914463400841,
      -0.015630662441253662,
      -0.048819445073604584,
      -0.012977737933397293,
      -0.021080341190099716,
      0.011683788150548935,
      -0.015544585883617401,
      0.032838258892297745,
      0.04836994782090187,
      0.05112456902861595,
      -0.03741787001490593,
      -0.007440876215696335,
      -0.004266954958438873,
      -0.024226639419794083,
      -0.03148646652698517,
      0.048117686063051224,
      -0.007084712386131287,
      0.023797933012247086,
      -0.046345070004463196,
      0.007704112678766251,
      0.01588362082839012,
      -0.009434886276721954
    ],
    [
      0.00439317524433136,
      -9.442120790481567e-05,
      0.010112468153238297,
      -0.04922798275947571,
      0.046365950256586075,
      0.041408803313970566,
      -0.014741797000169754,
      0.010628890246152878,
      -0.0021692588925361633,
      -0.004665262997150421,
      -0.015591774135828018,
      0.02907668426632881,
      0.012168172746896744,
      -0.006701916456222534,
      0.04317780211567879,
      -0.025356454774737358,
      0.014350999146699905,
      -0.02440427802503109,
      -0.014223068952560425,
      -0.015473704785108566,
      0.02069230005145073,
      0.0023445822298526764,
      -0.029894182458519936,
      -0.03960685431957245,
      -0.015853092074394226,
      -0.022606980055570602,
      0.04287506267428398,
      -0.042554378509521484,
      -0.04468104988336563,
      -0.04968537017703056,
      0.040445391088724136,
      0.05054422840476036,
      -0.02655392698943615,
      0.01276594027876854,
      0.03952644392848015,
      0.04939356818795204,
      0.048369016498327255,
      0.006631653755903244,
      -0.051273442804813385,
      -0.04850992560386658,
      0.05293746665120125,
      -0.008052811026573181,
      0.007846187800168991,
      -0.01188463345170021,
      0.050592657178640366,
      0.015619944781064987,
      0.05252532288432121,
      -0.05109737440943718,
      -0.039670467376708984,
      -0.0032416582107543945,
      -0.02317892201244831,
      -0.011444613337516785,
      0.028802860528230667,
      0.0305057130753994,
      0.004182010889053345,
      0.03018311783671379,
      -0.037301693111658096,
      0.0321173332631588,
      0.028711114078760147,
      0.004246924072504044,
      -0.052780453115701675,
      0.003347191959619522,
      -0.018908414989709854,
      -0.019053004682064056,
      0.047367993742227554,
      0.035696376115083694,
      0.03249907121062279,
      0.026237081736326218,
      0.03895058110356331,
      -0.021617263555526733,
      -0.0009812116622924805,
      -0.004452750086784363,
      -0.006080213934183121,
      -0.052656229585409164,
      -0.04969775304198265,
      -0.031781986355781555,
      0.023924294859170914,
      0.0020809508860111237,
      0.0002287440001964569,
      0.014701899141073227,
      -0.005271006375551224,
      0.013876106590032578,
      -0.05318402498960495,
      0.01188807561993599,
      0.008379217237234116,
      0.005535785108804703,
      0.029991094022989273,
      0.03343776986002922,
      0.019162949174642563,
      -0.02000247687101364,
      0.050132300704717636,
      -0.029320482164621353,
      -0.031230537220835686,
      0.01532256230711937,
      0.04740741476416588,
      0.0027776695787906647,
      0.003745671361684799,
      0.04778871312737465,
      0.03297301009297371,
      -0.04358028620481491,
      0.009237196296453476,
      -0.03376978263258934,
      -0.024314260110259056,
      0.01618712767958641,
      0.0069192759692668915,
      -0.010882683098316193,
      0.05014662817120552,
      -0.006963331252336502,
      -0.02223879098892212,
      0.024482164531946182,
      -0.04136747494339943,
      -0.05202946066856384,
      -0.046203501522541046,
      -0.03844209760427475,
      0.05116359516978264,
      -0.030674584209918976,
      0.0016174651682376862,
      -0.023544954136013985,
      0.002697385847568512,
      -0.020483937114477158,
      0.0029710307717323303,
      -8.888170123100281e-05,
      -0.02993498370051384,
      0.02134760096669197,
      0.024863656610250473,
      -0.040134720504283905,
      0.008334014564752579,
      0.013578888028860092,
      -0.016200605779886246,
      0.007963478565216064,
      -0.053126260638237,
      0.04268531873822212,
      0.027839545160531998,
      0.004153698682785034,
      0.01411760225892067,
      0.039873454719781876,
      0.01760413870215416,
      0.04303636774420738,
      -0.03364204615354538,
      0.04566950723528862,
      -0.03193873167037964,
      0.014109592884778976,
      -0.021328993141651154,
      -0.031293608248233795,
      -0.03698107972741127,
      -0.032708778977394104,
      0.02737770602107048,
      -0.04635671526193619,
      -0.02759764902293682,
      0.03040497377514839,
      0.04940784350037575,
      0.03322744742035866,
      0.05152338370680809,
      -0.02291417494416237,
      0.0008388236165046692,
