{
  "layer0_weight": [
    [
      -0.03663330525159836,
      0.039851170033216476,
      0.025096077471971512,
      -0.02210058644413948,
      -0.025164734572172165,
      0.02745983377099037,
      -0.016986940056085587,
      0.001489143818616867,
      0.047763463109731674,
      0.019601773470640182,
      0.041715096682310104,
      -0.01786108687520027,
      -0.004569310694932938,
      -0.053024597465991974,
      0.01169959083199501,
      -0.008804906159639359,
      -0.052838340401649475,
      -0.009654838591814041,
      -0.023547442629933357,
      -0.018147803843021393,
      0.04693945124745369,
      -0.00805027037858963,
      0.008215989917516708,
      -0.02096812054514885,
      0.042699117213487625,
      0.04105175659060478,
      0.03957710042595863,
      -0.03698219358921051,
      -0.009838588535785675,
      0.0358424074947834,
      -0.028884435072541237,
      -0.040753014385700226,
      0.01064932718873024,
      -0.005059882998466492,
      0.004387829452753067,
      -0.03849669545888901,
      0.03263126686215401,
      -0.041491977870464325,
      -0.014798320829868317,
      0.020775679498910904,
      0.014212224632501602,
      -0.04438524693250656,
      -0.040090590715408325,
      0.0013357214629650116,
      -0.028718290850520134,
      -0.00213419646024704,
      0.0446026585996151,
      -0.01842641457915306,
      -0.020647946745157242,
      0.034772854298353195,
      0.02808702364563942,
      0.004752762615680695,
      -0.034776005893945694,
      0.038199979811906815,
      -0.02135627344250679,
      -0.034539975225925446,
      -0.052332568913698196,
      -0.005549706518650055,
      0.034269023686647415,
      -0.05186989903450012,
      -0.010041337460279465,
      0.020842354744672775,
      -0.006427496671676636,
      -0.004232324659824371,
      0.022390175610780716,
      -0.04846571013331413,
      0.0381600446999073,
      0.04179798439145088,
      0.05058831349015236,
      0.017041001468896866,
      -0.008134987205266953,
      0.023324783891439438,
      0.014736447483301163,
      0.04884814843535423,
      -0.028820736333727837,
      0.028101596981287003,
      0.04009173437952995,
      -0.04977791756391525,
      -0.0358637198805809,
      0.03560534492135048,
      -0.04669627547264099,
      0.003573603928089142,
      -0.03702932596206665,
      0.01563240960240364,
      -0.049906887114048004,
      0.0015446431934833527,
      0.04008546844124794,
      0.001044049859046936,
      -0.04919897019863129,
      -0.04568886756896973,
      -0.018165722489356995,
      0.05361903831362724,
      0.015239108353853226,
      -0.008445393294095993,
      0.0018880106508731842,
      -0.03638930991292,
      -0.05065532028675079,
      -0.0030068717896938324,
      -0.03125574439764023,
      -0.047214094549417496,
      -0.0071182213723659515,
      0.006459251046180725,
      -0.04781588912010193,
      -0.028677431866526604,
      0.006525937467813492,
      0.030068833380937576,
      -0.0017630010843276978,
      -0.04387469217181206,
      0.046415504068136215,
      -0.03538929671049118,
      0.03343810513615608,
      0.019380319863557816,
      -0.021034393459558487,
      -0.02654850296676159,
      0.03709368780255318,
      0.011862892657518387,
      0.03397541865706444,
      -0.016485992819070816,
      -0.022460561245679855,
      0.03253261372447014,
      0.01717900112271309,
      -0.011509567499160767,
      0.04439925029873848,
      -0.04672706872224808,
      0.003733742982149124,
      0.04661613330245018,
      0.0392182357609272,
      -0.02237769216299057,
      -0.04723046347498894,
      -0.035751551389694214,
      -0.02597907744348049,
      -0.04798227548599243,
      -0.01809420809149742,
      0.04923993721604347,
      0.044791195541620255,
      0.02313811704516411,
      0.010922882705926895,
      -0.007437542080879211,
      0.03540358319878578,
      0.017453167587518692,
      0.0002842620015144348,
      0.01521037146449089,
      0.0023242048919200897,
      -0.04562762752175331,
      0.023263145238161087,
      0.014095347374677658,
      -0.008447855710983276,
      0.04568125680088997,
      0.031738732010126114,
      0.0045301951467990875,
      0.00021478906273841858,
      0.002919629216194153,
      0.019264068454504013,
      -0.012407958507537842,
      -0.02388235740363598,
      0.0428997240960598,
      -0.051179155707359314,
      0.04367593303322792,
      0.043027106672525406,
      0.050662826746702194,
      0.019356366246938705,
      -0.03914704546332359,
      0.03981969133019447,
      -0.0312754288315773,
      0.00320623442530632,
      0.013006780296564102,
      0.0007581859827041626,
      -0.03406761959195137,
      0.03809443488717079,
      -0.014111578464508057,
      -0.02830911986529827,
      -0.017783142626285553,
      -0.02662392519414425,
      0.028693724423646927,
      0.0477992407977581,
      0.041963864117860794,
      0.0046104006469249725,
      0.01989927515387535,
      0.051345568150281906,
      -0.04575766623020172,
      -0.016646869480609894,
      -0.05283134803175926,
      0.04687244072556496,
      0.04599420353770256,
      -0.0073206014931201935,
      -0.032216474413871765,
      0.021728191524744034,
      0.017109457403421402,
      0.018157798796892166,
      -0.04539952799677849,
      -0.04812685400247574,
      -0.026149695739150047,
      -0.05239994078874588,
      0.03708534315228462,
      -0.016476858407258987,
      -0.038589153438806534,
      -0.019801907241344452,
      0.01979096606373787,
      0.0014046505093574524,
      -0.010069765150547028,
      0.00656876340508461,
      -0.03609396144747734,
      -0.002623561769723892,
      0.025601085275411606,
      -0.014199420809745789,
      0.028727654367685318,
      0.04350269213318825,
      0.030664842575788498,
      0.047822240740060806,
      0.04692165181040764,
      0.0454324372112751,
      -0.010102987289428711,
      -0.04390399903059006,
      0.0035204365849494934,
      0.04124681279063225,
      -0.052172016352415085,
      -0.045393094420433044,
      -0.02310173027217388,
      0.03391336277127266,
      -0.03614179044961929,
      0.005783777683973312,
      0.04742055758833885,
      0.03403614088892937,
      -0.039512187242507935,
      0.00845402106642723,
      -0.011434551328420639,
      -0.041823096573352814,
      0.04212160035967827,
      0.008199527859687805,
      0.02588125690817833,
      0.030483823269605637,
      0.0015064440667629242,
      0.0025261975824832916,
      -0.025481095537543297,
      0.04773402586579323,
      -0.014124128967523575,
      -0.028213417157530785,
      0.0032082274556159973,
      0.028827477246522903,
      -0.010096259415149689,
      -0.011933032423257828,
      0.014602873474359512,
      0.028658311814069748,
      -0.009448960423469543,
      0.028294313699007034,
      -0.006198402494192123,
      -0.02980203740298748,
      -0.04181668907403946,
      -0.0005165301263332367,
      -0.005085375159978867,
      0.04009314253926277,
      -0.04356042668223381,
      0.03536571189761162,
      0.02932339534163475,
      0.042706143110990524,
      -0.03559361398220062,
      -0.014518048614263535,
      -0.014774348586797714,
      1.8537044525146484e-05,
      -0.038005515933036804,
      0.01662905141711235,
      0.012223716825246811,
      0.049841511994600296,
      -0.025736475363373756,
      0.03399348631501198,
      -0.0013520009815692902,
      -0.02126976102590561,
      0.011884640902280807,
      0.04238337650895119,
      0.036428336054086685,
      -0.04592496529221535,
      -0.02118513360619545,
      0.01709901914000511,
      0.0032509751617908478,
      0.046169672161340714,
      0.0173538438975811,
      -0.04224104434251785,
      -0.034645259380340576,
      0.0009484328329563141,
      -0.01241547241806984,
      -0.04092450439929962,
      0.04734504595398903,
      0.0252767913043499,
      0.034908827394247055,
      0.03352503105998039,
      -0.03481330722570419,
      0.01274510845541954,
      0.015004228800535202,
      -0.03996281698346138,
      0.04158041253685951,
      0.03980224207043648,
      -0.012769866734743118,
      -0.005713645368814468,
      -0.023011911660432816,
      -0.04817435145378113,
      -0.019170895218849182,
      -0.03117969073355198,
      -0.023275192826986313,
      -0.0495116300880909,
      0.0528733916580677,
      -0.019243281334638596,
      -0.0010420791804790497,
      -0.009782616049051285,
      0.04037666693329811,
      0.03304118290543556,
      0.04159378632903099,
      -0.035698942840099335,
      -0.03498551994562149,
      -0.006510686129331589,
      0.016186226159334183,
      0.03886421397328377,
      -0.020884249359369278,
      0.036603014916181564,
      0.044263746589422226,
      -0.022024881094694138,
      -0.002283398061990738,
      -0.020459748804569244,
      -0.006661038845777512,
      -0.03162918984889984,
      0.05167708918452263,
      -2.8852373361587524e-05,
      0.017342139035463333,
      0.01621396467089653,
      0.0011437423527240753,
      0.03575044497847557,
      0.014920022338628769,
      -0.028535079210996628,
      -0.01620626449584961,
      0.041744258254766464,
      -0.009057879447937012,
      -0.00671917200088501,
      0.042839448899030685,
      0.028700407594442368,
      -0.006008438766002655,
      -0.008919209241867065,
      0.04087243601679802,
      -0.025022555142641068,
      -0.04965008422732353,
      -0.05353346839547157,
      0.006059478968381882
    ],
    [
      -0.0073039717972278595,
      0.027742605656385422,
      0.03876456990838051,
      0.04593883827328682,
      0.00920293852686882,
      0.012856569141149521,
      0.036676470190286636,
      0.008833538740873337,
      0.031634796410799026,
      -0.02848264016211033,
      0.025530461221933365,
      0.007078167051076889,
      0.007114555686712265,
      -0.04828254505991936,
      0.00876234844326973,
      0.008355829864740372,
      0.006550207734107971,
      0.03273900970816612,
      0.052063342183828354,
      -0.04644479975104332,
      -0.04677242040634155,
      -0.004623323678970337,
      0.05047076568007469,
      0.049639295786619186,
      -0.017145108431577682,
      0.026506412774324417,
      -0.031048540025949478,
      0.030068647116422653,
      0.04681053385138512,
      0.04937678948044777,
      -0.021664276719093323,
      -0.02794068306684494,
      -0.03375760838389397,
      0.04024050012230873,
      -0.013819262385368347,
      0.015778277069330215,
      0.04607163742184639,
      -0.006474696099758148,
      0.019932705909013748,
      0.048341650515794754,
      -0.025534890592098236,
      -0.04225657880306244,
      -0.006787508726119995,
      0.04056306555867195,
      0.048826079815626144,
      -0.04668014124035835,
      -0.004804011434316635,
      0.0522330142557621,
      0.01990554854273796,
      -0.028895245864987373,
      -0.04409124329686165,
      -0.050515372306108475,
      -0.000878211110830307,
      0.0010282844305038452,
      -0.024272456765174866,
      0.03128119185566902,
      0.009947914630174637,
      0.020985689014196396,
      -0.032205380499362946,
      -0.05310966074466705,
      0.039359141141176224,
      -0.03145943209528923,
      0.02641092613339424,
      0.0045836493372917175,
      -0.004350107163190842,
      0.03262330964207649,
      0.04418417438864708,
      -0.027361053973436356,
      -0.022024765610694885,
      0.01667623594403267,
      0.02276337519288063,
      0.0533408559858799,
      0.039969783276319504,
      -0.006864409893751144,
      -0.006247490644454956,
      -0.03371528908610344,
      -0.037155017256736755,
      0.0431370846927166,
      -0.014712434262037277,
      -0.03384626284241676,
      0.04094105586409569,
      -0.04127994552254677,
      -0.0052977055311203,
      -0.014314297586679459,
      0.02932130917906761,
      0.04538891091942787,
      0.011243697255849838,
      0.02414577826857567,
      0.009506423026323318,
      0.04709919914603233,
      -0.03795182332396507,
      -0.043888211250305176,
      0.020085688680410385,
      -0.009950768202543259,
      -0.0003746300935745239,
      -0.03246171772480011,
      -0.021513771265745163,
      -0.0008620806038379669,
      -0.04784055054187775,
      0.015053559094667435,
      0.04150839522480965,
      0.047361698001623154,
      -0.042387641966342926,
      0.010654401034116745,
      -0.04194498062133789,
      0.017184454947710037,
      0.03393103554844856,
      0.033036936074495316,
      -0.05175783485174179,
      -0.01663386821746826,
      0.003774091601371765,
      -0.005587797611951828,
      -0.012728549540042877,
      0.017045680433511734,
      -0.0017655305564403534,
      -0.0046676695346832275,
      -0.05231257900595665,
      0.02859540656208992,
      -0.028636541217565536,
      0.023864079266786575,
      -0.052870169281959534,
      0.0037033185362815857,
      -0.05084230750799179,
      -0.022877290844917297,
      0.031752754002809525,
      -0.028575129806995392,
      0.005543764680624008,
      -0.015611778944730759,
      -0.027047015726566315,
      0.02851266786456108,
      0.020131055265665054,
      0.01995517686009407,
      0.014359671622514725,
      0.03105100616812706,
      -0.04736880958080292,
      -0.008345533162355423,
      0.040356334298849106,
      -0.03487982228398323,
      -0.050839345902204514,
      -0.047480735927820206,
      0.05344979837536812,
      -0.006490573287010193,
      0.008495744317770004,
      0.049263741821050644,
      0.01906222477555275,
      -0.003794565796852112,
      -0.029710162431001663,
      0.019104983657598495,
      -0.0193355530500412,
      -0.022923126816749573,
      -0.028635188937187195,
      0.04330139979720116,
      -0.02548079751431942,
      0.05182981863617897,
      -0.03699438273906708,
      -0.04837130755186081,
      -0.052067916840314865,
      -0.0007924437522888184,
      0.045177947729825974,
      0.016525913029909134,
      -0.0007713548839092255,
      -0.026925964280962944,
      0.03154876455664635,
      0.03727950528264046,
      -0.051985979080200195,
      0.04560988023877144,
      -0.0508672259747982,
      0.051561009138822556,
      -0.013988163322210312,
      0.029469389468431473,
      -0.021649155765771866,
      -0.00808003544807434,
      -0.04612357169389725,
      0.03715483471751213,
      -0.009914189577102661,
      0.051972512155771255,
      -0.009426053613424301,
      0.02032950147986412,
      -0.05252331495285034,
      -0.001072075217962265,
      -0.025509243831038475,
      3.1929463148117065e-05,
      -0.0027092434465885162,
      0.04494531825184822,
      0.02488972619175911,
      0.003996100276708603,
      0.016696911305189133,
      0.016238559037446976,
      -0.029017705470323563,
      -0.04264195263385773,
      0.04149922356009483,
      -0.012679316103458405,
      0.02571515366435051,
      0.023350592702627182,
      -0.002126213163137436,
      -0.01151103526353836,
      0.03147277608513832,
      -0.04810238257050514,
      -0.0009609833359718323,
      0.012241017073392868,
      0.014397133141756058,
      -0.021337654441595078,
      -0.02657388523221016,
      -0.038403019309043884,
      0.035824935883283615,
      -0.044753044843673706,
      -0.0415017269551754,
      0.00833597406744957,
      -0.017150014638900757,
      0.004703115671873093,
      0.0062527842819690704,
      -0.044963836669921875,
      -0.048792626708745956,
      -0.018767204135656357,
      -0.025441419333219528,
      -0.03244572505354881,
      0.03202437236905098,
      0.04175559803843498,
      -0.018738556653261185,
      -0.048667214810848236,
      -0.04547085613012314,
      -0.00783098116517067,
      -0.03127162903547287,
      -0.02051170915365219,
      0.05342132970690727,
      0.04286875203251839,
      0.012391548603773117,
      0.04205447807908058,
      -0.017446283251047134,
      -0.03073556162416935,
      0.05161115899682045,
      0.05135231837630272,
      -0.016676660627126694,
      -0.005164105445146561,
      0.05318706855177879,
      0.03609864041209221,
      -0.0011535808444023132,
      -0.0283262450248003,
      -0.03701617941260338,
      0.035176780074834824,
      -0.043447140604257584,
      0.016957174986600876,
      0.04286285117268562,
      0.018283139914274216,
      -0.0029636621475219727,
      0.04181503877043724,
      0.028002213686704636,
      0.006342876702547073,
      -0.0005975440144538879,
      0.026839081197977066,
      0.02145097777247429,
      0.009403001517057419,
      -0.02147775888442993,
      -0.033824287354946136,
      -0.014922067523002625,
      0.04604332521557808,
      0.02127673849463463,
      -0.03916233032941818,
      -0.023548010736703873,
      0.019739758223295212,
      -0.0011285282671451569,
      -0.051562823355197906,
      -0.046159420162439346,
      0.0274592824280262,
      -0.020983435213565826,
      -0.010859809815883636,
      0.049679700285196304,
      0.05416545644402504,
      0.030344177037477493,
      0.05037975683808327,
      -0.037629611790180206,
      -0.007754966616630554,
      -0.04412949085235596,
      -0.012811146676540375,
      -0.039333123713731766,
      -0.0251915380358696,
      -0.020189542323350906,
      0.023265015333890915,
      -0.04954828694462776,
      0.00869203731417656,
      0.026543911546468735,
      -0.048537157475948334,
      -0.01589292287826538,
      -0.04019183665513992,
      0.0375644750893116,
      -0.021787136793136597,
      0.019340146332979202,
      -0.04448581859469414,
      -0.014565877616405487,
      -0.03071991726756096,
      -0.05215840041637421,
      0.046218957751989365,
      -0.008383020758628845,
      0.006087854504585266,
      -0.013551715761423111,
      0.009349744766950607,
      0.046232905238866806,
      0.01905529573559761,
      -0.030363615602254868,
      -0.02545853890478611,
      -0.005290534347295761,
      -0.020735930651426315,
      0.02014925703406334,
      0.02770203724503517,
      0.029183875769376755,
      0.05255662277340889,
      -0.0499420203268528,
      0.03602297976613045,
      0.007720619440078735,
      -0.04172968864440918,
      0.05067913606762886,
      0.013954970985651016,
      -0.02449283003807068,
      -0.0029934383928775787,
      -0.053511157631874084,
      -0.05276148393750191,
      -0.03399933874607086,
      -0.006913445889949799,
      -0.02814812771975994,
      -0.03080887533724308,
      -0.04761679470539093,
      -0.04078597202897072,
      -0.043691486120224,
      0.051600050181150436,
      -0.03316103667020798,
      0.007777716964483261,
      -0.03862745314836502,
      -0.0428590327501297,
      0.05300207808613777,
      -0.02290382981300354,
      0.03316653147339821,
      0.024157892912626266,
      0.04850095883011818,
      0.002585839480161667,
      -0.012937944382429123,
      -0.048890843987464905,
      0.017253097146749496,
      -0.020510084927082062,
      0.009178388863801956,
      -0.015262801200151443
    ],
    [
      0.0031172186136245728,
      -0.022259768098592758,
      -0.0046724192798137665,
      0.003212668001651764,
      -0.044112980365753174,
      0.04399481788277626,
      0.04526478424668312,
      0.0035104863345623016,
      -0.037506427615880966,
      -0.01267855241894722,
      0.02084622159600258,
      -0.01697666198015213,
      0.012469258159399033,
      -0.04657920077443123,
      0.026551183313131332,
      -0.053044840693473816,
      0.02418341115117073,
      -0.044511742889881134,
      0.022229354828596115,
      0.025516550987958908,
      0.0005600079894065857,
      0.042941007763147354,
      0.04083174839615822,
      0.048480380326509476,
      0.043588440865278244,
      0.02489909902215004,
      0.005873143672943115,
      0.019910302013158798,
      0.03187960013747215,
      0.02920488640666008,
      -0.043079674243927,
      0.04153488203883171,
      0.029056426137685776,
      0.02144758775830269,
      0.025478113442659378,
      -0.009778730571269989,
      -0.040511518716812134,
      -0.040003590285778046,
      0.020134422928094864,
      -0.01277654618024826,
      -0.02108876407146454,
      0.04904703423380852,
      -0.03628229349851608,
      0.026450466364622116,
      0.018611367791891098,
      -0.05026773363351822,
      -0.017911382019519806,
      0.053083065897226334,
      0.023750964552164078,
      -0.018574971705675125,
      0.04784786328673363,
      -0.015525657683610916,
      -0.03413313627243042,
      0.0060585178434848785,
      -0.04121563583612442,
      -0.040227897465229034,
      0.009826574474573135,
      0.019242484122514725,
      -0.018072161823511124,
      0.04021494463086128,
      0.03249393031001091,
      -0.019135911017656326,
      -0.01831938326358795,
      0.012603212147951126,
      0.020981427282094955,
      0.01590416207909584,
      -0.011249929666519165,
      0.033156853169202805,
      -0.016992732882499695,
      0.028281141072511673,
      -0.036481138318777084,
      0.008536171168088913,
      0.01466856524348259,
      0.0035927556455135345,
      -0.0063277073204517365,
      0.038796376436948776,
      0.034400757402181625,
      0.05293727293610573,
      -0.0370517298579216,
      -0.03315548226237297,
      0.007085107266902924,
      -0.0375528484582901,
      0.02035016193985939,
      0.020344402641057968,
      -0.03291517496109009,
      0.020863059908151627,
      -0.03023032657802105,
      -0.04600981995463371,
      -0.032877057790756226,
      -0.04216568171977997,
      0.03864527866244316,
      0.04690052941441536,
      0.040259603410959244,
      -0.035062458366155624,
      -0.04123960807919502,
      -0.010814379900693893,
      0.03788972273468971,
      -0.0018000639975070953,
      -0.003841947764158249,
      -0.031041106209158897,
      0.033557500690221786,
      0.04984959587454796,
      -0.04858732596039772,
      -0.04682846739888191,
      0.017577406018972397,
      0.014609429985284805,
      0.03765185549855232,
      -0.054157957434654236,
      0.013605792075395584,
      0.02684234455227852,
      -0.008068107068538666,
      0.017214681953191757,
      -0.028039339929819107,
      0.023402590304613113,
      0.014525849372148514,
      0.03294513002038002,
      -0.01307201012969017,
      -0.052918411791324615,
      -0.007970865815877914,
      -0.003548547625541687,
      -0.04806040972471237,
      -0.017383035272359848,
      0.009418848901987076,
      -0.011670868843793869,
      -0.002773057669401169,
      -0.030107121914625168,
      0.028416793793439865,
      0.008121315389871597,
      -0.02405264601111412,
      0.04196524992585182,
      -0.04996524378657341,
      0.04483130946755409,
      -0.047092337161302567,
      0.02183673158288002,
      0.039837222546339035,
      -0.05107491835951805,
      0.05251653864979744,
      0.046668339520692825,
      0.01795044168829918,
      -0.035357557237148285,
      0.0013483725488185883,
      0.007638983428478241,
      -0.023990154266357422,
      -0.04198874533176422,
      -0.022499829530715942,
      -0.028059324249625206,
      -0.03937481716275215,
      0.04638652130961418,
      -0.014612440019845963,
      -0.04831983521580696,
      0.03184809908270836,
      -0.006944466382265091,
      0.029271554201841354,
      -0.017658710479736328,
      -0.011472869664430618,
      0.025296758860349655,
      -0.04650868847966194,
      0.0024407878518104553,
      -0.03065640479326248,
      0.04858690872788429,
      -0.03684081882238388,
      -0.004782285541296005,
      -0.010040517896413803,
      0.04544530436396599,
      0.05224473401904106,
      -0.009796276688575745,
      -0.01252848282456398,
      0.013844426721334457,
      0.04983160272240639,
      -0.007576268166303635,
      0.04358610883355141,
      0.0110299251973629,
      -0.00697784498333931,
      -0.015405852347612381,
      -0.038021963089704514,
      -0.04071195796132088,
      -0.03988123685121536,
      0.041551362723112106,
      -0.043686509132385254,
      -0.02917671389877796,
      0.014341156929731369,
      0.02290688082575798,
      -0.0010425187647342682,
      -0.03849833458662033,
      -0.03464522585272789,
      -0.03659256547689438,
      0.035108406096696854,
      0.013425979763269424,
      0.001478392630815506,
      0.044129956513643265,
      0.036064598709344864,
      -0.029988767579197884,
      0.0014066696166992188,
      0.03155289962887764,
      -0.04904717579483986,
      -0.006574492901563644,
      -0.01703118160367012,
      0.0236133374273777,
      -0.007864367216825485,
      -0.03670922666788101,
      -0.035877518355846405,
      -0.04074001684784889,
      0.013289708644151688,
      -0.003212578594684601,
      -0.04171918332576752,
      0.03234748914837837,
      0.0374751053750515,
      -0.0424397774040699,
      0.017369616776704788,
      0.013990666717290878,
      0.0409022755920887,
      0.04275689646601677,
      -0.0006740950047969818,
      -0.031973350793123245,
      -0.02298964001238346,
      0.026959728449583054,
      0.04535721614956856,
      0.009024087339639664,
      -0.004929903894662857,
      0.024769801646471024,
      -0.03599689528346062,
      -0.0014417283236980438,
      0.017290305346250534,
      0.051201190799474716,
      0.021212052553892136,
      -0.005402322858572006,
      0.01242879405617714,
      0.02829761430621147,
      -0.04986879229545593,
      -0.0473579466342926,
      0.028511259704828262,
      0.02699911966919899,
      0.03700042888522148,
      -0.04668091610074043,
      0.04694649949669838,
      0.049121249467134476,
      -0.045703351497650146,
      -0.04990244284272194,
      -0.038568295538425446,
      -0.00958726555109024,
      0.05213587358593941,
      0.026847880333662033,
      0.03928833082318306,
      0.027635794132947922,
      -0.026064861565828323,
      -0.05067405104637146,
      -0.019217170774936676,
      0.03993307426571846,
      -0.0166119746863842,
      0.017383310943841934,
      0.010842394083738327,
      0.015385810285806656,
      -0.028837822377681732,
      0.036739129573106766,
      0.04785537347197533,
      -0.026581216603517532,
      0.053848747164011,
      -0.005318012088537216,
      -0.04257722198963165,
      0.012172181159257889,
      0.042255181819200516,
      0.029561366885900497,
      0.05422944948077202,
      -0.02567288652062416,
      -0.04177010431885719,
      -0.02124246582388878,
      -0.052274882793426514,
      0.01820705458521843,
      0.01663985475897789,
      0.021556612104177475,
      -0.039115820080041885,
      0.011482510715723038,
      -0.047238513827323914,
      -0.05041305720806122,
      -0.052293092012405396,
      0.01793137565255165,
      -0.0019002929329872131,
      -0.03222166746854782,
      0.028028879314661026,
      0.05114990845322609,
      -0.043847985565662384,
      0.040392499417066574,
      -0.024244334548711777,
      0.024651717394590378,
      -0.03226950764656067,
      -0.0013308264315128326,
      0.04502147063612938,
      0.049054887145757675,
      0.05306253954768181,
      -0.023846114054322243,
      -0.004088331013917923,
      0.0037414170801639557,
      0.008729230612516403,
      -0.009380832314491272,
      -0.011059556156396866,
      -0.017360761761665344,
      0.03902900591492653,
      -0.015482310205698013,
      0.015856023877859116,
      -0.016982953995466232,
      -0.00863821804523468,
      0.04737377539277077,
      -0.04022745043039322,
      0.0045051127672195435,
      -0.018984079360961914,
      -0.042302511632442474,
      0.04235139116644859,
      0.020388681441545486,
      0.029854264110326767,
      0.002750217914581299,
      -0.050891268998384476,
      -0.05256945267319679,
      -0.01390330120921135,
      -0.04256546497344971,
      0.022919606417417526,
      0.04586267098784447,
      -0.04967329651117325,
      0.025827210396528244,
      0.0138469897210598,
      -0.0539778433740139,
      -0.04654800891876221,
      0.010928895324468613,
      0.033077653497457504,
      0.005377773195505142,
      -0.046280212700366974,
      0.01324227824807167,
      -0.029635349288582802,
      0.047871533781290054,
      0.03280191496014595,
      0.02263708785176277,
      -0.038184501230716705,
      -0.05381267890334129,
      0.03967124596238136,
      -0.030362199991941452,
      0.04678162559866905,
      0.052403997629880905,
      0.03846227005124092,
      0.021988119930028915,
      0.012841057032346725,
      0.025545526295900345
    ],
    [
      0.0066414885222911835,
      -0.01780165731906891,
      0.03257047012448311,
      -0.0038750283420085907,
      -0.04761387035250664,
      -0.021255627274513245,
      -0.034087441861629486,
      -0.04476064443588257,
      -0.004414703696966171,
      0.02091546729207039,
      -0.005742046982049942,
      -0.0262950100004673,
      0.026898477226495743,
      0.023434359580278397,
      0.005498476326465607,
      -0.03666196018457413,
      -0.029117241501808167,
      -0.028911232948303223,
      0.05033036693930626,
      0.015110228210687637,
      -0.028513098135590553,
      -0.005988948047161102,
      -0.013837572187185287,
      0.006542004644870758,
      0.0035297833383083344,
      -0.03768366575241089,
      0.042078424245119095,
      -0.04659102484583855,
      0.027436111122369766,
      0.03133636340498924,
      -0.025325391441583633,
      0.010906357318162918,
      0.0294203944504261,
      0.006177898496389389,
      0.03082725778222084,
      0.043448615819215775,
      -0.026245003566145897,
      0.019939269870519638,
      0.047611888498067856,
      0.044419776648283005,
      0.04093704745173454,
      0.03183740749955177,
      0.005899924784898758,
      -0.05274832993745804,
      0.03645477071404457,
      -0.008143432438373566,
      -0.021882515400648117,
      0.02101866528391838,
      0.008625898510217667,
      0.030211571604013443,
      -0.024638080969452858,
      -0.029013697057962418,
      -0.02325531281530857,
      0.0136839859187603,
      0.006201006472110748,
      -0.05378464609384537,
      0.028352584689855576,
      -0.015000801533460617,
      0.017123062163591385,
      0.049666378647089005,
      -0.0339631587266922,
      0.04815142974257469,
      -0.02132881060242653,
      0.010562684386968613,
      0.014881957322359085,
      0.009469393640756607,
      -0.021738365292549133,
      0.03559040650725365,
      0.046324823051691055,
      0.03647816553711891,
      0.03584498539566994,
      0.037688154727220535,
      -0.033021196722984314,
      -0.022078756242990494,
      0.02476208284497261,
      -0.008300472050905228,
      -0.0210297591984272,
      -0.04846964776515961,
      -0.04399627819657326,
      -0.0413362979888916,
      0.013265658169984818,
      -0.01345905289053917,
      0.02104044333100319,
      -0.0507974736392498,
      -0.03925611078739166,
      0.03394504263997078,
      -0.04215202480554581,
      -0.04961961507797241,
      0.050837453454732895,
      -0.037030212581157684,
      0.012808743864297867,
      -0.006847042590379715,
      0.04103105142712593,
      -0.008636608719825745,
      -0.04094148799777031,
      -0.023199183866381645,
      0.05201328173279762,
      -0.045058734714984894,
      -0.029843879863619804,
      -0.012295279651880264,
      -0.03157615661621094,
      -0.02234647050499916,
      -0.02187502756714821,
      0.01467125490307808,
      -0.021652579307556152,
      0.04895678535103798,
      -0.04429247975349426,
      -0.014471571892499924,
      0.019929315894842148,
      -0.04616657644510269,
      0.04201648011803627,
      0.0020730234682559967,
      0.029560696333646774,
      0.01403697207570076,
      0.02760598435997963,
      -0.03298737108707428,
      -0.04646815359592438,
      -0.026809504255652428,
      -0.00919167697429657,
      0.030525173991918564,
      0.008251313120126724,
      0.04197436198592186,
      -0.04958523437380791,
      -0.0176863856613636,
      0.023564230650663376,
      0.01588820293545723,
      0.03976767137646675,
      -0.024477431550621986,
      -0.026509268209338188,
      -0.002077937126159668,
      -0.053307849913835526,
      -0.011196084320545197,
      -0.012330081313848495,
      0.01896023377776146,
      0.027694541960954666,
      -0.0008545108139514923,
      0.009630870074033737,
      0.054084111005067825,
      -0.03668089583516121,
      0.051305729895830154,
      -0.014064386487007141,
      -0.03309711441397667,
      0.04775464907288551,
      0.015516307204961777,
      -0.04591083899140358,
      -0.02964101918041706,
      0.046377312391996384,
      -0.04141620174050331,
      0.03778482601046562,
      0.026459407061338425,
      -0.027064794674515724,
      -0.03911620378494263,
      0.012181300669908524,
      -0.015294685959815979,
      -0.02025805413722992,
      -0.014045137912034988,
      0.025210242718458176,
      0.0021084658801555634,
      0.05190987512469292,
      -0.00733909010887146,
      -0.013081636279821396,
      -0.04930495470762253,
      -0.053319137543439865,
      -0.04316307231783867,
      -0.016845643520355225,
      -0.0352155938744545,
      -0.03803124651312828,
      0.002056945115327835,
      -0.02950180694460869,
      0.030044306069612503,
      0.01867041364312172,
      0.02926642820239067,
      -0.009625144302845001,
      -0.04130205512046814,
      -0.0026925429701805115,
      -0.014232762157917023,
      0.04954807087779045,
      0.035368096083402634,
      0.02715112641453743,
      -0.03635695204138756,
      0.024691801518201828,
      0.024526242166757584,
      -0.0318135991692543,
      0.042678479105234146,
      -0.039354659616947174,
      -0.02217598259449005,
      0.04536896571516991,
      0.05244498327374458,
      -0.011921506375074387,
      -0.028249945491552353,
      -0.04476131871342659,
      -0.036537740379571915,
      0.04642205312848091,
      0.005845092236995697,
      -0.02376336231827736,
      0.007232218980789185,
      -0.04163167625665665,
      0.03246179595589638,
      0.049717601388692856,
      -0.05400809273123741,
      -0.019705764949321747,
      0.015157606452703476,
      0.03592916205525398,
      0.050405558198690414,
      0.034157563000917435,
      0.008181504905223846,
      0.0037825554609298706,
      -0.03823217749595642,
      0.03992247208952904,
      -0.002499796450138092,
      0.0012685023248195648,
      -0.02090761438012123,
      0.0001350603997707367,
      -0.03580800071358681,
      -0.01773318275809288,
      0.009648222476243973,
      -0.003580830991268158,
      -0.03341679275035858,
      -0.03701718896627426,
      0.036231573671102524,
      -0.015996214002370834,
      -0.032420407980680466,
      0.024692293256521225,
      0.004356130957603455,
      -0.008537352085113525,
      -0.03358243405818939,
      0.011681180447340012,
      -0.04344068840146065,
      -0.021866746246814728,
      0.027594048529863358,
      0.019626054912805557,
      -0.049469560384750366,
      0.04716288670897484,
      0.006182633340358734,
      -0.04164464771747589,
      -0.05184156447649002,
      -0.00340067595243454,
      -0.019949477165937424,
      0.03383922204375267,
      -0.012032892554998398,
      0.003113880753517151,
      -0.012702584266662598,
      -0.03813914954662323,
      0.0184168703854084,
      0.02292962744832039,
      -0.0009663477540016174,
      -0.014777541160583496,
      -0.02350759133696556,
      -0.002921678125858307,
      0.044661831110715866,
      0.04233531281352043,
      0.04697365686297417,
      0.00040990859270095825,
      -0.024455534294247627,
      -0.04653115198016167,
      0.013424646109342575,
      -0.03710103780031204,
      -0.038595378398895264,
      0.00014165416359901428,
      -0.04208330065011978,
      -0.007372882217168808,
      -0.028453947976231575,
      -0.016283441334962845,
      -0.04523821175098419,
      0.0526011623442173,
      0.016845647245645523,
      0.011751580983400345,
      -0.01857919991016388,
      -0.040515054017305374,
      0.00980418547987938,
      0.0072935521602630615,
      0.005515795201063156,
      -0.013352598994970322,
      -0.027163781225681305,
      -0.02095722034573555,
      -0.007844403386116028,
      0.007153607904911041,
      -0.0015218444168567657,
      -0.025597775354981422,
      -0.023943904787302017,
      -0.04627032205462456,
      0.03530612960457802,
      0.041324663907289505,
      0.04933863505721092,
      0.022597331553697586,
      -0.027059538289904594,
      0.045479949563741684,
      0.007851943373680115,
      -0.022847898304462433,
      -0.04160701483488083,
      -0.053489454090595245,
      -0.02679198980331421,
      -0.0007827654480934143,
      0.04384792968630791,
      -0.03631255775690079,
      0.04757427051663399,
      -0.016231264919042587,
      0.05152538791298866,
      -0.045563604682683945,
      0.012604188174009323,
      -0.005904428660869598,
      0.000764850527048111,
      0.04114801809191704,
      0.00868290290236473,
      0.031741898506879807,
      -0.01768108457326889,
      0.020925384014844894,
      0.030400041490793228,
      0.0004901327192783356,
      -0.032692089676856995,
      0.048544686287641525,
      0.03087136521935463,
      -0.015977200120687485,
      -0.047251343727111816,
      0.038153890520334244,
      0.0318128876388073,
      0.028929103165864944,
      -0.0024251937866210938,
      -0.005214773118495941,
      0.0372721366584301,
      -0.024859579280018806,
      0.03286172077059746,
      0.013743672519922256,
      -0.0017678961157798767,
      -0.04153295233845711,
      0.03640423342585564,
      -0.00974840298295021,
      -0.020381517708301544,
      -0.048349346965551376,
      -0.033824674785137177,
      0.029451709240674973,
      -0.03440803661942482,
      0.0043338872492313385,
      -0.011119905859231949,
      0.02947312965989113,
      -0.02232876420021057,
      0.022992659360170364,
      0.004892420023679733,
      -0.016750391572713852,
      0.037473905831575394
    ],
    [
      0.044131677597761154,
      0.048158708959817886,
      0.03127298131585121,
      0.02438095584511757,
      -0.042896874248981476,
      -0.014559127390384674,
      0.024664830416440964,
      0.0063070207834243774,
      -0.03179126977920532,
      -0.03652282804250717,
      0.03915629908442497,
      0.005357611924409866,
      -0.02761835604906082,
      0.018913883715867996,
      -0.04096139967441559,
      -0.04953419417142868,
      -0.0011075884103775024,
      0.0018358305096626282,
      -0.011075187474489212,
      -0.015000391751527786,
      -0.007024358958005905,
      0.03889979049563408,
      -0.03843618184328079,
      -0.009244225919246674,
      0.014922279864549637,
      0.03314906731247902,
      0.010493051260709763,
      -0.0004945546388626099,
      -0.03508644551038742,
      0.014283891767263412,
      0.020431015640497208,
      0.0006927922368049622,
      0.03493091091513634,
      0.03473319485783577,
      -0.03479674458503723,
      0.01646195724606514,
      -0.030329803004860878,
      -0.05150578171014786,
      -0.0037511922419071198,
      0.0027349404990673065,
      0.009724859148263931,
      0.026034224778413773,
      0.017758991569280624,
      0.015400264412164688,
      0.025984223932027817,
      -0.029197990894317627,
      0.028788451105356216,
      0.022022631019353867,
      0.014026250690221786,
      -0.045731596648693085,
      0.009771551936864853,
      -0.040625594556331635,
      0.0061068348586559296,
      0.012470785528421402,
      -0.032444655895233154,
      -0.050720810890197754,
      0.01617041602730751,
      0.014108110219240189,
      -0.025550495833158493,
      -0.013306491076946259,
      -0.016217701137065887,
      0.014096129685640335,
      0.04824872687458992,
      0.04510200396180153,
      -0.04846274480223656,
      -0.018657512962818146,
      0.050797004252672195,
      -0.001984208822250366,
      -0.045459285378456116,
      -0.014611605554819107,
      -0.026494642719626427,
      -0.0249363761395216,
      0.02192564681172371,
      0.04871845617890358,
      0.002736058086156845,
      0.020508956164121628,
      -0.012098394334316254,
      0.023081395775079727,
      -0.006845951080322266,
      0.0436757393181324,
      -0.017329350113868713,
      0.020298156887292862,
      0.007931210100650787,
      -0.016409188508987427,
      -0.031620919704437256,
      -0.0032263807952404022,
      -0.019702695310115814,
      0.009011480957269669,
      -0.0010140538215637207,
      -0.05309779569506645,
      0.0016520023345947266,
      -0.028919178992509842,
      0.011731129139661789,
      -0.049468882381916046,
      -0.03065003640949726,
      0.04609875753521919,
      0.030128594487905502,
      -0.04899781569838524,
      0.0016788281500339508,
      -0.04207811504602432,
      0.03804508224129677,
      0.02913009002804756,
      -0.022979333996772766,
      -0.03200601786375046,
      -0.0536486953496933,
      0.0015258565545082092,
      -0.03745697811245918,
      0.0049436092376708984,
      0.051929157227277756,
      0.025332514196634293,
      0.04234665259718895,
      -0.005797091871500015,
      -0.01406576856970787,
      0.040176521986722946,
      0.03075559064745903,
      -0.02311699464917183,
      0.021256987005472183,
      0.02633177861571312,
      -0.025409022346138954,
      0.0005192123353481293,
      -0.051386695355176926,
      -0.049833234399557114,
      -0.02633284404873848,
      -0.050278279930353165,
      -0.05084905028343201,
      0.006707359105348587,
      -0.002217646688222885,
      -0.0048733726143836975,
      0.0007332190871238708,
      -0.010559756308794022,
      -0.03340427577495575,
      0.022744979709386826,
      0.015312191098928452,
      0.05047249421477318,
      0.025574643164873123,
      0.0008397810161113739,
      0.041217099875211716,
      0.05263075605034828,
      -0.006279438734054565,
      -0.020630884915590286,
      0.05009750649333,
      -0.023386798799037933,
      0.042922649532556534,
      -0.03278718143701553,
      0.03593658283352852,
      0.0008729025721549988,
      0.0325344018638134,
      0.011200610548257828,
      -0.018773488700389862,
      0.036996711045503616,
      0.033131446689367294,
      -0.038764748722314835,
      -0.017854951322078705,
      -0.027571523562073708,
      0.046632569283246994,
      0.046303633600473404,
      -0.031498461961746216,
      0.017658408731222153,
      -0.03158149868249893,
      0.04930606856942177,
      -0.053616996854543686,
      -0.04333891347050667,
      0.009432759135961533,
      -0.05081421881914139,
      -0.05240441486239433,
      0.026267778128385544,
      0.032356005162000656,
      -0.01942954584956169,
      0.02216413989663124,
      0.048152703791856766,
      -0.014120839536190033,
      -0.018305949866771698,
      -0.037853650748729706,
      0.0012624338269233704,
      0.007742844521999359,
      0.027392204850912094,
      -0.04023765027523041,
      0.005985494703054428,
      0.03958067670464516,
      -0.021202292293310165,
      0.000744454562664032,
      0.04820941761136055,
      -0.013321306556463242,
      -0.03994433581829071,
      0.03330696001648903,
      0.020498182624578476,
      -0.024153273552656174,
      -0.019629143178462982,
      0.030307460576295853,
      0.044313084334135056,
      -0.0026851333677768707,
      -0.029552098363637924,
      0.047438446432352066,
      -0.02253825217485428,
      -0.012668546289205551,
      -0.045254360884428024,
      0.04380471631884575,
      0.048416536301374435,
      -0.03350767493247986,
      0.03856838867068291,
      0.028404537588357925,
      -0.03800949454307556,
      0.052312228828668594,
      -0.008843716233968735,
      0.028696607798337936,
      0.0015535540878772736,
      -0.03137796372175217,
      -0.050465963780879974,
      -0.048251815140247345,
      -0.007837772369384766,
      0.05101020261645317,
      -0.02536873146891594,
      0.008196704089641571,
      -0.01633295789361,
      0.012029241770505905,
      -0.0498957559466362,
      -0.043807294219732285,
      -0.0508836954832077,
      -0.023637138307094574,
      0.016512591391801834,
      -0.0002863481640815735,
      0.028385814279317856,
      -0.0006016604602336884,
      -0.014464274048805237,
      -0.023172812536358833,
      -0.025972947478294373,
      -0.004663027822971344,
      -0.005689304322004318,
      -0.025290312245488167,
      0.03809211775660515,
      0.005100339651107788,
      0.03741937503218651,
      0.0368095226585865,
      0.026405055075883865,
      -0.027246514335274696,
      0.010739203542470932,
      -0.004986893385648727,
      -0.04333909600973129,
      -0.02048119530081749,
      0.01840740069746971,
      0.0022048167884349823,
      -0.047983139753341675,
      0.05238800868391991,
      -0.019311826676130295,
      -0.00815238431096077,
      -0.03625237196683884,
      0.026340607553720474,
      0.015656333416700363,
      0.01317155733704567,
      0.03586464002728462,
      -0.016203340142965317,
      -0.039572931826114655,
      0.050695549696683884,
      -0.014117676764726639,
      -0.028950903564691544,
      0.04856427386403084,
      -0.05254453793168068,
      0.032520126551389694,
      -0.0030863024294376373,
      0.01967472955584526,
      0.043375980108976364,
      -0.02423994429409504,
      0.01317477598786354,
      0.040563758462667465,
      -0.0028154700994491577,
      0.021158184856176376,
      -0.03550482168793678,
      -0.04373800754547119,
      -0.04368814080953598,
      -0.027443166822195053,
      0.0009530410170555115,
      -0.04003635793924332,
      -0.04546845704317093,
      -0.03321538120508194,
      0.0473535992205143,
      -0.027610521763563156,
      -0.052912637591362,
      0.031707558780908585,
      -0.045247696340084076,
      -0.021668728440999985,
      0.03768353536725044,
      -0.04600178450345993,
      0.05198955163359642,
      -0.008188661187887192,
      0.04393874481320381,
      0.050687070935964584,
      -0.02230245992541313,
      -0.041493386030197144,
      0.043872591108083725,
      0.00955061987042427,
      0.039552394300699234,
      -0.032643601298332214,
      -0.0415281318128109,
      0.0006338506937026978,
      0.04381681606173515,
      -0.0023507289588451385,
      -0.0013877563178539276,
      -0.033034682273864746,
      -0.013226144015789032,
      0.015784796327352524,
      -0.028475698083639145,
      0.022639404982328415,
      0.03917023167014122,
      0.02786005660891533,
      0.0048951804637908936,
      0.015063617378473282,
      0.02342350408434868,
      0.03567027673125267,
      0.03156021609902382,
      0.0248064287006855,
      0.034068215638399124,
      0.02592015638947487,
      -0.03879460692405701,
      0.04208981618285179,
      0.010393548756837845,
      0.025807950645685196,
      -0.013741999864578247,
      -0.0009124092757701874,
      -0.026907863095402718,
      0.00951765850186348,
      0.017077792435884476,
      0.04812750592827797,
      -0.049186673015356064,
      -0.052309051156044006,
      0.034764159470796585,
      0.03568778559565544,
      0.04206586256623268,
      -0.03152850270271301,
      -0.03375856578350067,
      -0.002508062869310379,
      0.002657141536474228,
      -0.049587685614824295,
      0.0032500475645065308,
      0.014131125062704086,
      0.02576407417654991,
      0.01662418618798256,
      0.04323000833392143,
      -0.005686815828084946,
      0.022464748471975327,
      -0.03038669005036354
    ],
    [
      -0.0070349834859371185,
      -0.04221704602241516,
      0.05183294788002968,
      -0.007228333503007889,
      -0.01473073661327362,
      0.01294991746544838,
      -0.0227854922413826,
      -0.023899869993329048,
      0.013030532747507095,
      0.03902305290102959,
      0.004544980823993683,
      -0.04595763981342316,
      0.0315878726541996,
      -0.05357818678021431,
      0.013823408633470535,
      -0.006893061101436615,
      0.006331335753202438,
      0.006065763533115387,
      -0.014595888555049896,
      0.029096569865942,
      0.03690043464303017,
      -0.04358984902501106,
      -0.002283792942762375,
      -0.0005485974252223969,
      -2.6132911443710327e-05,
      -0.05012255534529686,
      -0.022743534296751022,
      -0.01819850131869316,
      -0.04753318056464195,
      -0.04631190001964569,
      -0.02785610780119896,
      -0.018673013895750046,
      -0.030870268121361732,
      -0.0324833057820797,
      0.007934007793664932,
      -0.030230015516281128,
      -0.030967211350798607,
      -0.030840301886200905,
      -0.04620014503598213,
      -0.008696787059307098,
      0.019061852246522903,
      -0.03370431065559387,
      -0.04079500213265419,
      -0.0030029118061065674,
      -0.0334819033741951,
      -0.0014187246561050415,
      -0.03565409407019615,
      0.04275598004460335,
      0.03513166680932045,
      -0.026862381026148796,
      0.011028584092855453,
      -0.053562846034765244,
      0.014982979744672775,
      -0.04955456405878067,
      -0.053798288106918335,
      -0.05003754049539566,
      0.048446159809827805,
      0.05308728292584419,
      -0.03581678122282028,
      -0.021709945052862167,
      0.026547696441411972,
      -0.03963209316134453,
      -0.0027243010699748993,
      0.02633007988333702,
      -0.03324120119214058,
      -0.03732127696275711,
      0.029392030090093613,
      -0.041983284056186676,
      -0.030114084482192993,
      -0.047840677201747894,
      -0.05053815245628357,
      -0.0076459795236587524,
      0.030404139310121536,
      -0.005775440484285355,
      0.03919841721653938,
      -0.010865513235330582,
      0.05296122655272484,
      0.00803985446691513,
      0.0009321346879005432,
      0.0307542122900486,
      -0.02081567421555519,
      -0.008619911968708038,
      -0.02668328583240509,
      0.010482419282197952,
      0.026989538222551346,
      0.014132078737020493,
      -0.03395529091358185,
      0.021814394742250443,
      0.020136941224336624,
      0.0008860267698764801,
      -0.04653197526931763,
      -0.024281810969114304,
      -0.02873794548213482,
      0.011677790433168411,
      0.027089577168226242,
      -0.0210743211209774,
      -0.04326514154672623,
      0.01252443715929985,
      0.05255674943327904,
      -0.03013618290424347,
      -0.024437598884105682,
      -0.007785830646753311,
      0.019806358963251114,
      -0.012872830033302307,
      0.00851106271147728,
      -0.03149344027042389,
      -0.032439813017845154,
      -0.04594981670379639,
      -0.03414766490459442,
      0.03572787716984749,
      -0.027525881305336952,
      0.028606120496988297,
      0.03403245285153389,
      -0.022079769521951675,
      -0.0330670028924942,
      0.02875548228621483,
      0.0020558424293994904,
      0.010050538927316666,
      0.002814989537000656,
      -0.012837663292884827,
      0.031430017203092575,
      0.01525053009390831,
      0.03386271372437477,
      0.007873579859733582,
      -0.032778557389974594,
      0.01779000833630562,
      -0.047908004373311996,
      -0.03843507915735245,
      -0.006481807678937912,
      0.023020710796117783,
      0.050036635249853134,
      -0.04696989804506302,
      0.01598549261689186,
      0.026884008198976517,
      0.051172006875276566,
      -0.05022496357560158,
      -0.008820470422506332,
      -0.007975418120622635,
      0.024193067103624344,
      0.024264860898256302,
      -0.04424314573407173,
      0.04996608570218086,
      -0.02343793213367462,
      -0.01868586242198944,
      0.006996631622314453,
      0.013771433383226395,
      -0.003971043974161148,
      -0.029037902131676674,
      -0.034424588084220886,
      0.029712457209825516,
      0.03082175925374031,
      0.047614846378564835,
      0.049821872264146805,
      0.002085600048303604,
      0.01147129014134407,
      0.019021112471818924,
      -0.005647413432598114,
      -0.023977309465408325,
      0.019435983151197433,
      -0.027048612013459206,
      -0.0479307621717453,
      -0.03268235921859741,
      -0.03154055029153824,
      0.05176087096333504,
      0.01614946499466896,
      0.013046953827142715,
      -0.040989845991134644,
      -0.03253660351037979,
      -0.020733296871185303,
      0.03226638212800026,
      -0.04572068527340889,
      -0.04814242571592331,
      -0.046949733048677444,
      -0.025976095348596573,
      0.030753199011087418,
      0.011944551020860672,
      0.0352858267724514,
      0.00853687897324562,
      -0.046257127076387405,
      -0.03051808476448059,
      -0.039120033383369446,
      -0.026837652549147606,
      0.051945846527814865,
      -0.02576492168009281,
      -0.0019173026084899902,
      0.012350272387266159,
      -0.0028403811156749725,
      -0.03602629899978638,
      -0.048271294683218,
      0.0458693690598011,
      0.04296046867966652,
      0.052562568336725235,
      0.042394522577524185,
      0.04193590208888054,
      -0.005222182720899582,
      -0.053629737347364426,
      0.025032702833414078,
      -0.015408005565404892,
      -0.052791520953178406,
      -0.052503783255815506,
      0.045621972531080246,
      0.0009733475744724274,
      -0.05164000764489174,
      -0.02220148593187332,
      0.008906889706850052,
      -0.0417034775018692,
      -0.026519546285271645,
      0.03672275319695473,
      -0.048962950706481934,
      -0.0005115382373332977,
      0.0010211654007434845,
      0.03797287121415138,
      0.04049185290932655,
      -0.005352213978767395,
      0.04003608599305153,
      -0.014591652899980545,
      0.02688448503613472,
      0.04931586608290672,
      0.04896513745188713,
      -0.012661144137382507,
      0.036979760974645615,
      -0.034096576273441315,
      0.027785148471593857,
      0.01871919259428978,
      0.023465145379304886,
      0.04356065019965172,
      -0.044029101729393005,
      0.00597604364156723,
      -0.04611692577600479,
      -0.0142986960709095,
      -0.049141980707645416,
      -0.021451614797115326,
      -0.029043301939964294,
      0.014401618391275406,
      -0.020764485001564026,
      -0.03790215402841568,
      0.047422055155038834,
      0.04453561082482338,
      -0.043646190315485,
      -0.045366089791059494,
      0.05174679681658745,
      0.00792352482676506,
      0.009522121399641037,
      -0.037801921367645264,
      0.0073830485343933105,
      -0.03864409402012825,
      0.01617899164557457,
      -0.05380360409617424,
      -0.027392404153943062,
      0.053474005311727524,
      0.053023140877485275,
      0.01871548965573311,
      0.013927970081567764,
      -0.04255220293998718,
      0.0241861455142498,
      0.026158388704061508,
      -0.02541719377040863,
      0.04330170527100563,
      -0.02883116342127323,
      0.04868008568882942,
      -0.04110532999038696,
      -0.04704059287905693,
      0.010519180446863174,
      0.05098191276192665,
      -0.026294434443116188,
      -0.013998642563819885,
      0.010206665843725204,
      -0.03791522607207298,
      -0.021334771066904068,
      -0.04540402814745903,
      -0.02199455350637436,
      -0.04890555143356323,
      -0.018623512238264084,
      -0.011190671473741531,
      0.015212338417768478,
      0.011308234184980392,
      0.03039054200053215,
      -0.026247834786772728,
      -0.01771846041083336,
      0.042975764721632004,
      0.053251806646585464,
      0.014775622636079788,
      0.023244287818670273,
      0.05225718393921852,
      -0.0053834132850170135,
      -0.011883091181516647,
      0.031398970633745193,
      -0.023205434903502464,
      0.009209614247083664,
      0.023729410022497177,
      0.036231208592653275,
      0.0009422190487384796,
      0.04091491177678108,
      -0.01162109524011612,
      0.030275050550699234,
      0.053792934864759445,
      -0.024458417668938637,
      -0.00837811827659607,
      -0.0389496311545372,
      0.02213623747229576,
      -0.01424221321940422,
      -0.023350104689598083,
      -0.03631383180618286,
      0.025454293936491013,
      -0.04933523014187813,
      -0.02882630191743374,
      -0.009950205683708191,
      0.02510562166571617,
      -0.009568821638822556,
      -0.041738010942935944,
      0.022887255996465683,
      0.04026621952652931,
      -0.016271114349365234,
      0.024201150983572006,
      0.03155544772744179,
      -0.026013147085905075,
      -0.03496044874191284,
      -0.04612857475876808,
      -0.007739238440990448,
      0.025466378778219223,
      0.04641444608569145,
      0.008633989840745926,
      -0.05330542102456093,
      -0.004094395786523819,
      -0.029670841991901398,
      0.02512006089091301,
      -0.03228452056646347,
      0.014413554221391678,
      0.01992863044142723,
      -0.015287525951862335,
      0.04591193422675133,
      -0.0074515193700790405,
      -0.025070449337363243,
      -0.04019585996866226,
      0.03418836370110512,
      -0.015283554792404175,
      0.042365361005067825,
      -0.046890757977962494,
      -0.040780723094940186,
      -0.03228257969021797
    ],
    [
      -0.002808835357427597,
      -0.05140411853790283,
      -0.04800435155630112,
      0.024335253983736038,
      0.03235316649079323,
      -0.05236738175153732,
      0.04234853759407997,
      0.0437021367251873,
      -0.04030129313468933,
      0.0455281026661396,
      -0.04620753973722458,
      0.011514727026224136,
      -0.0273637305945158,
      0.03012268617749214,
      0.02262517437338829,
      0.03275005891919136,
      0.0019341036677360535,
      0.01588771864771843,
      -0.04841822385787964,
      -0.04838254302740097,
      0.002737622708082199,
      0.009086240082979202,
      -0.009706445038318634,
      0.012120049446821213,
      0.05355944111943245,
      0.010789390653371811,
      -0.04168371856212616,
      0.033210936933755875,
      0.0006996989250183105,
      -0.008368827402591705,
      0.018727529793977737,
      -0.013558115810155869,
      0.020062502473592758,
      -0.0293742585927248,
      0.019858550280332565,
      -0.0021556727588176727,
      0.046200696378946304,
      0.0440153144299984,
      -0.017452921718358994,
      0.04198070988059044,
      0.008680712431669235,
      0.0034948736429214478,
      -0.00639728456735611,
      0.034792739897966385,
      -0.029087107628583908,
      -0.006849344819784164,
      0.03913058713078499,
      -0.03725672885775566,
      0.04179053381085396,
      -0.012783080339431763,
      -0.018162250518798828,
      0.006950560957193375,
      0.03415309265255928,
      -0.02372574247419834,
      0.027001384645700455,
      0.04625646397471428,
      -0.024120528250932693,
      -0.00792856514453888,
      -0.033042438328266144,
      0.02673114463686943,
      0.019266556948423386,
      -0.014697086066007614,
      -0.04486517980694771,
      -0.0306849405169487,
      0.033275339752435684,
      -0.033051349222660065,
      -0.027611063793301582,
      -0.03531865030527115,
      -0.027438802644610405,
      -0.0013572946190834045,
      0.018005963414907455,
      0.024923015385866165,
      -0.02409227006137371,
      -0.0076735131442546844,
      0.015549402683973312,
      0.03137729689478874,
      0.03643282875418663,
      0.0009834282100200653,
      -0.027560248970985413,
      0.030502449721097946,
      0.008285988122224808,
      -0.03322392702102661,
      -0.053800150752067566,
      0.04897582158446312,
      -0.02630539983510971,
      0.013609398156404495,
      -0.008745048195123672,
      0.02143118903040886,
      -0.030984587967395782,
      -0.021424803882837296,
      0.02706243470311165,
      0.026517879217863083,
      -0.02521631307899952,
      -0.04302457720041275,
      0.01778576895594597,
      0.048511799424886703,
      0.01706983521580696,
      -0.01436694711446762,
      0.0060470812022686005,
      -0.008609302341938019,
      0.052854377776384354,
      0.046254660934209824,
      -0.010706577450037003,
      -0.0064736828207969666,
      -0.02038690075278282,
      0.04146238788962364,
      -0.04404313862323761,
      -0.0507524237036705,
      -0.018236618489027023,
      -0.029725639149546623,
      0.05374890938401222,
      0.009658757597208023,
      -0.009768392890691757,
      -0.025165827944874763,
      0.042793262749910355,
      0.029275361448526382,
      -0.00508374348282814,
      -0.030573399737477303,
      -0.014759458601474762,
      0.019239816814661026,
      0.04947439953684807,
      0.0169009231030941,
      -0.03712239861488342,
      -0.025337500497698784,
      -0.00848677009344101,
      0.029401186853647232,
      0.029427167028188705,
      0.028184901922941208,
      0.04479608312249184,
      0.004319105297327042,
      0.03651757910847664,
      0.014030884951353073,
      -0.03594318777322769,
      0.0404294990003109,
      0.05350799486041069,
      -0.048852164298295975,
      -0.020474806427955627,
      -0.03980719670653343,
      -0.03434969484806061,
      0.0032521970570087433,
      -0.02780190482735634,
      -0.009130675345659256,
      0.017053555697202682,
      -0.05142582207918167,
      -0.023776071146130562,
      -0.00917040929198265,
      0.026168879121541977,
      0.0252830870449543,
      0.04496389254927635,
      0.03043207898736,
      0.033830706030130386,
      -0.03295518830418587,
      -0.01713043823838234,
      0.051264990121126175,
      0.010392207652330399,
      0.025238696485757828,
      0.004168272018432617,
      -0.027882259339094162,
      0.02196984365582466,
      -0.02670864202082157,
      0.04463570937514305,
      -0.007465735077857971,
      0.013659600168466568,
      -0.04988176003098488,
      -0.04237544536590576,
      0.017951522022485733,
      0.033436063677072525,
      -0.03970104828476906,
      -0.04532601311802864,
      -0.007499754428863525,
      0.040704239159822464,
      0.021602224558591843,
      -0.01538165658712387,
      0.049807507544755936,
      0.04766681417822838,
      -0.045831870287656784,
      -0.043282099068164825,
      0.011657554656267166,
      -0.0066999830305576324,
      -0.025962533429265022,
      -0.0026162751019001007,
      0.02470294013619423,
      0.028374921530485153,
      -0.030594054609537125,
      0.02775057777762413,
      -0.009415175765752792,
      -0.04828546568751335,
      0.030388440936803818,
      -0.0337415412068367,
      0.023531567305326462,
      -0.05139768123626709,
      0.04291261360049248,
      0.03612727299332619,
      0.028632748872041702,
      0.04199133440852165,
      -0.05311889201402664,
      0.025629553943872452,
      -0.011666271835565567,
      -0.017596233636140823,
      -0.02000541239976883,
      -0.028134433552622795,
      0.000314909964799881,
      0.030860688537359238,
      -0.047555726021528244,
      0.03008466586470604,
      -0.024471469223499298,
      0.009410690516233444,
      0.02082110568881035,
      0.04991341009736061,
      0.021446723490953445,
      -0.03693674877285957,
      0.03850853070616722,
      -0.04735859856009483,
      0.004318758845329285,
      0.01626158133149147,
      0.015179697424173355,
      -0.04524879530072212,
      0.03837097808718681,
      0.0028277672827243805,
      0.05339564010500908,
      -0.007860161364078522,
      0.048352498561143875,
      -0.005456000566482544,
      0.04879983887076378,
      0.033138636499643326,
      -0.015725072473287582,
      -0.010002076625823975,
      0.047167468816041946,
      0.04280075058341026,
      0.013365324586629868,
      0.00622997060418129,
      -0.037437357008457184,
      0.0541866235435009,
      0.05185827985405922,
      -0.006351117044687271,
      0.04385686293244362,
      -0.013563524931669235,
      -0.04140399396419525,
      0.03448747470974922,
      0.04144022986292839,
      0.04240991547703743,
      0.04618897661566734,
      0.02405589446425438,
      0.04633468762040138,
      0.04952989146113396,
      0.019857492297887802,
      0.008187942206859589,
      0.03056013211607933,
      0.019650127738714218,
      0.02066163346171379,
      0.0366477333009243,
      -0.018219493329524994,
      0.022292952984571457,
      -0.011697616428136826,
      0.04178756847977638,
      -0.05135834589600563,
      0.007075335830450058,
      0.008731868118047714,
      -0.00616561621427536,
      -0.03409215435385704,
      0.021005917340517044,
      0.027690228074789047,
      0.03551512584090233,
      -0.006103921681642532,
      0.017781715840101242,
      -0.0021700412034988403,
      0.018673155456781387,
      -0.001994069665670395,
      0.034797120839357376,
      0.03928489610552788,
      -0.0066676065325737,
      0.05323847010731697,
      0.0015138722956180573,
      -0.012223474681377411,
      0.016300830990076065,
      -0.030125528573989868,
      -0.0224873386323452,
      -0.04707834869623184,
      -0.02205396071076393,
      0.0008412934839725494,
      0.04353713616728783,
      0.04988439753651619,
      -0.024942370131611824,
      -0.03248281031847,
      0.00974750891327858,
      -0.015829119831323624,
      0.01570746675133705,
      -0.027708660811185837,
      -0.04680611938238144,
      0.005493827164173126,
      -0.05082181468605995,
      -0.006910260766744614,
      -0.023135406896471977,
      -0.0016719549894332886,
      0.029914099723100662,
      -0.01577044278383255,
      -0.042187970131635666,
      0.04350939765572548,
      0.05378169193863869,
      0.052498962730169296,
      0.02257462963461876,
      -0.004273056983947754,
      0.004160653799772263,
      0.016543585807085037,
      0.03269456699490547,
      -0.04192439094185829,
      0.0025107599794864655,
      0.00529126450419426,
      0.028534304350614548,
      0.036996085196733475,
      0.008073356002569199,
      -0.039190154522657394,
      0.034818779677152634,
      -0.049774814397096634,
      0.03989705815911293,
      0.01673976704478264,
      -0.03226226568222046,
      0.025397393852472305,
      -0.021902013570070267,
      0.029149647802114487,
      0.04373452439904213,
      -0.04309280216693878,
      0.01052069291472435,
      -0.013167459517717361,
      0.016369003802537918,
      -0.047699473798274994,
      -0.016434945166110992,
      0.046286728233098984,
      0.04902151599526405,
      -0.015322688966989517,
      -0.026961302384734154,
      -0.010179474949836731,
      0.04458041116595268,
      -0.006621852517127991,
      -0.005220338702201843,
      0.03910745307803154,
      0.05242357775568962,
      -0.006379581987857819,
      0.0029731765389442444,
      0.003917064517736435
    ],
    [
      -0.034412071108818054,
      -0.02579852193593979,
      -0.00014707818627357483,
      -0.023073865100741386,
      -0.05387027561664581,
      -0.003003764897584915,
      -0.03552868962287903,
      0.050149012356996536,
      -0.027805481106042862,
      0.051883820444345474,
      0.03171149268746376,
      0.018635813146829605,
      0.043978240340948105,
      -0.05238920822739601,
      0.025980327278375626,
      0.016722556203603745,
      0.007476866245269775,
      -0.0036678314208984375,
      0.0022896677255630493,
      -0.0458499975502491,
      0.029760930687189102,
      0.022768881171941757,
      -0.047047682106494904,
      0.028569992631673813,
      0.012177001684904099,
      0.0499202199280262,
      0.04452187940478325,
      -0.007551621645689011,
      0.04229572042822838,
      0.012215029448270798,
      0.052061427384614944,
      0.027452003210783005,
      -0.047675080597400665,
      -0.0026864074170589447,
      0.03790774568915367,
      -0.03936496376991272,
      0.041376736015081406,
      0.04288060590624809,
      -0.009118117392063141,
      0.05363040044903755,
      0.014639239758253098,
      0.0124150849878788,
      -0.03280896320939064,
      0.035894233733415604,
      -0.011941663920879364,
      0.05274949595332146,
      0.04876699671149254,
      0.0037365928292274475,
      0.048423510044813156,
      -0.05226290971040726,
      0.017579276114702225,
      0.020512830466032028,
      0.013670306652784348,
      -0.04072923958301544,
      -0.040696367621421814,
      -0.015289012342691422,
      0.03631460294127464,
      0.038555096834897995,
      -0.024795090779662132,
      -0.0264716986566782,
      -0.0472249761223793,
      0.0541701577603817,
      0.021295886486768723,
      0.005937948822975159,
      -0.050274431705474854,
      -0.04828496649861336,
      -0.045542068779468536,
      -0.01907527446746826,
      -0.046362921595573425,
      -0.03296467661857605,
      0.007322661578655243,
      0.0358823724091053,
      -0.044332437217235565,
      -0.00890824943780899,
      -0.00929306447505951,
      0.03422665223479271,
      -0.048392701894044876,
      0.0486174114048481,
      0.012626264244318008,
      -0.04438163340091705,
      0.011633429676294327,
      0.025356922298669815,
      0.032851558178663254,
      0.03776904568076134,
      0.005370341241359711,
      -0.040273357182741165,
      0.020099181681871414,
      0.019070398062467575,
      0.0032248347997665405,
      0.026149798184633255,
      0.021540824323892593,
      -0.04501070827245712,
      0.02083704248070717,
      -0.0399755984544754,
      -0.045364297926425934,
      0.0535079650580883,
      0.043247025460004807,
      -0.0073378682136535645,
      0.030056733638048172,
      0.003144722431898117,
      -0.026823319494724274,
      0.006880816072225571,
      -0.011479154229164124,
      0.03708909824490547,
      0.03324170038104057,
      -0.00871565192937851,
      0.01275612786412239,
      -0.0023929663002490997,
      0.03983825817704201,
      -0.03997579962015152,
      0.008803945034742355,
      0.01095874235033989,
      -0.00010722130537033081,
      0.0021061599254608154,
      -0.04357994347810745,
      0.03197997435927391,
      0.028985049575567245,
      -0.045609887689352036,
      0.030240219086408615,
      -0.005961630493402481,
      -0.023030240088701248,
      0.017440181225538254,
      -0.032542139291763306,
      0.050268132239580154,
      -0.02350717782974243,
      0.014412540942430496,
      -0.02831738069653511,
      -0.007286369800567627,
      0.005264740437269211,
      -0.054113492369651794,
      -0.004074495285749435,
      -0.01469435915350914,
      -0.006468340754508972,
      0.040958087891340256,
      -0.010443553328514099,
      0.03970184549689293,
      0.028523284941911697,
      0.007383681833744049,
      0.05061877891421318,
      -0.02328692190349102,
      0.021246004849672318,
      -0.05203817039728165,
      -0.03234556317329407,
      0.022494744509458542,
      0.04376596584916115,
      -0.007890958338975906,
      0.033758897334337234,
      0.01399427279829979,
      0.02996116504073143,
      0.006216075271368027,
      0.02682146057486534,
      -0.03280539810657501,
      -0.039874911308288574,
      -0.020615458488464355,
      0.007136963307857513,
      0.00036233291029930115,
      0.04982763156294823,
      0.04734500125050545,
      -0.05390382930636406,
      0.039878617972135544,
      -0.0332958847284317,
      -0.004422858357429504,
      -0.030275633558630943,
      -0.0047715939581394196,
      -0.011485032737255096,
      0.04406713321805,
      0.022524047642946243,
      -0.027373259887099266,
      -0.01348741352558136,
      0.04186679795384407,
      -0.029431700706481934,
      -0.053532976657152176,
      -0.0083475261926651,
      -0.05393483489751816,
      -0.023985622450709343,
      -0.0006348975002765656,
      0.015353050082921982,
      0.04368835315108299,
      0.04773876443505287,
      0.0046899281442165375,
      -0.011859655380249023,
      -5.9153884649276733e-05,
      -0.04817627742886543,
      -0.015234414488077164,
      0.01855386421084404,
      0.02417687699198723,
      0.031630415469408035,
      -0.016812734305858612,
      0.007273081690073013,
      -0.040314383804798126,
      -0.022638432681560516,
      -0.0037339776754379272,
      -0.0064383745193481445,
      -0.038143619894981384,
      0.021272782236337662,
      0.04443315044045448,
      0.05408518388867378,
      -0.03024465963244438,
      -0.003866773098707199,
      -0.005990318953990936,
      0.05065668746829033,
      -0.03823637589812279,
      0.046596627682447433,
      -0.04077833518385887,
      0.04029479995369911,
      -0.010567516088485718,
      -0.027989545837044716,
      -0.04804074391722679,
      -0.04575415328145027,
      0.03761680796742439,
      0.0008415468037128448,
      0.003079596906900406,
      -0.02571719139814377,
      -0.048785168677568436,
      0.004445135593414307,
      0.017233196645975113,
      -0.03635074198246002,
      0.03709275647997856,
      0.006734494119882584,
      0.017758693546056747,
      0.013629917055368423,
      -0.03826829791069031,
      -0.03685932978987694,
      0.0133734829723835,
      0.012201841920614243,
      -0.028516465798020363,
      0.002299882471561432,
      -0.0013767927885055542,
      0.030830826610326767,
      -0.04795156419277191,
      0.035426970571279526,
      0.010306794196367264,
      0.043295037001371384,
      -0.006182968616485596,
      0.009448129683732986,
      -0.02383006177842617,
      -0.005659431219100952,
      -0.0433056503534317,
      0.031029414385557175,
      -0.03469180315732956,
      0.020872455090284348,
      -0.01908351108431816,
      0.016043994575738907,
      0.02595200017094612,
      -0.01007780060172081,
      -0.04097890108823776,
      -0.012197457253932953,
      0.0404624305665493,
      0.04644397273659706,
      0.00019179284572601318,
      -0.053124573081731796,
      -0.03846695274114609,
      -0.05294037237763405,
      -0.029064441099762917,
      0.005237560719251633,
      0.02229064330458641,
      -0.03192900866270065,
      -0.029267288744449615,
      0.020271670073270798,
      -0.03477656841278076,
      -0.0362771674990654,
      0.02418813481926918,
      0.014589119702577591,
      -0.052784428000450134,
      -0.012058880180120468,
      0.049701523035764694,
      0.0024455226957798004,
      -0.02297867462038994,
      0.01251300796866417,
      -0.01551283523440361,
      -0.03236409276723862,
      0.005477771162986755,
      0.023411471396684647,
      0.0028251074254512787,
      -0.025084180757403374,
      0.0026502832770347595,
      -0.051152486354112625,
      -0.05055900290608406,
      0.02033315971493721,
      -0.004377648234367371,
      0.02973080798983574,
      -0.0001378878951072693,
      -0.03609972819685936,
      0.05212834104895592,
      0.0016794800758361816,
      -0.0323118194937706,
      0.013261746615171432,
      0.011992882937192917,
      0.02588580921292305,
      -0.04869876801967621,
      -0.04392794519662857,
      -0.052005864679813385,
      0.006953109055757523,
      0.012375686317682266,
      -0.04607081785798073,
      0.04914231225848198,
      -0.024016959592700005,
      0.002696022391319275,
      0.0078265480697155,
      0.029467176645994186,
      -0.04614308476448059,
      0.024245064705610275,
      0.04868550971150398,
      -0.051064684987068176,
      -0.05079474300146103,
      0.030904922634363174,
      -0.028333142399787903,
      0.03326014056801796,
      0.004839569330215454,
      -0.024420499801635742,
      -0.033103134483098984,
      0.0315830297768116,
      0.04989964887499809,
      0.041575830429792404,
      0.04987301304936409,
      -0.023886578157544136,
      0.04168820008635521,
      -0.015664417296648026,
      0.048087213188409805,
      -0.03425319492816925,
      0.04110625758767128,
      -0.03825788572430611,
      -0.03458920493721962,
      0.04162205383181572,
      -0.025476420298218727,
      -0.03173425421118736,
      -0.0037397220730781555,
      0.003399766981601715,
      0.015158358961343765,
      0.0299653522670269,
      0.0074721165001392365,
      0.01244976744055748,
      0.023215528577566147,
      -0.01919006183743477,
      0.006010133773088455,
      0.0524735264480114,
      -0.03247112035751343,
      -0.03210956230759621,
      0.042408112436532974,
      -0.04854830354452133
    ],
    [
      0.01148044690489769,
      -0.035763807594776154,
      -0.02385835163295269,
      0.00912027433514595,
      -0.010950788855552673,
      0.026703428477048874,
      0.014951277524232864,
      0.04748566821217537,
      -0.0006334744393825531,
      -0.022336378693580627,
      -0.05158716440200806,
      0.015763919800519943,
      -0.022306568920612335,
      0.03284314647316933,
      0.029397878795862198,
      0.008356738835573196,
      0.004815913736820221,
      -0.004216436296701431,
      -0.05245206877589226,
      -0.030820932239294052,
      -0.0068387314677238464,
      0.011104095727205276,
      -0.01957881823182106,
      -0.00971190631389618,
      -0.03484230488538742,
      -0.022393666207790375,
      -0.053356461226940155,
      0.052594225853681564,
      0.010257583111524582,
      0.010069210082292557,
      0.027316231280565262,
      -0.010366007685661316,
      0.011073078960180283,
      -0.035120755434036255,
      0.022934865206480026,
      0.049619656056165695,
      0.049574095755815506,
      0.025543738156557083,
      -0.0344264954328537,
      -0.048902321606874466,
      -0.03584090620279312,
      -0.046762868762016296,
      -0.020816896110773087,
      0.04007161036133766,
      0.04517048969864845,
      -0.04868807643651962,
      0.009155426174402237,
      0.043031614273786545,
      -0.0063891783356666565,
      -0.02794673480093479,
      -0.008462682366371155,
      0.011470284312963486,
      -0.05328197032213211,
      -0.03817698732018471,
      0.03522137925028801,
      -0.01844453439116478,
      -0.007338237017393112,
      -0.022434428334236145,
      -0.035530708730220795,
      0.025244925171136856,
      -0.01217036321759224,
      0.0029287487268447876,
      -0.027552464976906776,
      0.022709842771291733,
      -0.015254352241754532,
      -0.02004137635231018,
      -0.023069482296705246,
      -0.03883851692080498,
      -0.03040480427443981,
      -0.02063833922147751,
      -0.04788386449217796,
      0.008591357618570328,
      -0.03661546856164932,
      0.010936517268419266,
      -0.04043147340416908,
      0.03022860363125801,
      0.024790097028017044,
      0.034736935049295425,
      -0.024725280702114105,
      -0.03592930734157562,
      -0.02657138928771019,
      -0.020619027316570282,
      0.02708406373858452,
      -0.044701408594846725,
      -0.04557041823863983,
      -0.04057399556040764,
      -0.05343719199299812,
      -0.040318749845027924,
      -0.023166432976722717,
      0.031842540949583054,
      -0.036912523210048676,
      -0.04055505990982056,
      -0.018710363656282425,
      0.051495712250471115,
      -0.04829109087586403,
      -0.033955976366996765,
      0.030718792229890823,
      -0.029415737837553024,
      -0.010407369583845139,
      -0.006247527897357941,
      0.04155022278428078,
      0.003940515220165253,
      -0.040385015308856964,
      0.04149584099650383,
      -0.045563071966171265,
      0.04270019009709358,
      -0.027838103473186493,
      0.009327877312898636,
      0.049130868166685104,
      -0.048229485750198364,
      0.05103575810790062,
      0.04886924847960472,
      0.021695207804441452,
      0.005189396440982819,
      -0.003145843744277954,
      -0.048294324427843094,
      0.0271671824157238,
      -0.032031551003456116,
      0.027042221277952194,
      -0.005568701773881912,
      0.024652276188135147,
      -0.009740624576807022,
      0.04708702489733696,
      0.031238939613103867,
      -0.04674491286277771,
      0.01702633872628212,
      -0.036573316901922226,
      -0.025969373062253,
      0.022522781044244766,
      -0.032917898148298264,
      0.03934946283698082,
      0.04821204021573067,
      -0.04694695770740509,
      0.0005282498896121979,
      -0.007677599787712097,
      0.023646313697099686,
      0.033765729516744614,
      0.008935723453760147,
      0.009752083569765091,
      0.003230944275856018,
      0.008113667368888855,
      -0.04113738238811493,
      -0.04606400430202484,
      0.0008189640939235687,
      0.025499332696199417,
      0.029993321746587753,
      -0.03735899180173874,
      0.035168398171663284,
      0.031160589307546616,
      -0.04549108445644379,
      -0.020263541489839554,
      -0.0421714261174202,
      -0.010274190455675125,
      0.002018272876739502,
      0.01344854012131691,
      0.0016598589718341827,
      -0.028118355199694633,
      0.02170863375067711,
      -0.03512570261955261,
      -0.014871492981910706,
      0.025528188794851303,
      -0.01776030659675598,
      -0.008322685956954956,
      0.0412476621568203,
      -0.04355733469128609,
      0.04270961508154869,
      -0.01473166048526764,
      -0.045229606330394745,
      -0.03454834222793579,
      -0.01047690212726593,
      0.01422044262290001,
      0.025187429040670395,
      0.04312765225768089,
      -0.028608663007616997,
      0.03522119298577309,
      0.045153770595788956,
      -0.007440205663442612,
      0.014719989150762558,
      -0.0013705864548683167,
      0.03607231751084328,
      -0.021135125309228897,
      0.01960170641541481,
      -0.029975876212120056,
      -0.03126034140586853,
      0.011384416371583939,
      0.012537751346826553,
      0.012137208133935928,
      0.01913212612271309,
      0.045957114547491074,
      -0.033857546746730804,
      -0.04332743212580681,
      0.007382620126008987,
      0.05273367837071419,
      0.03524656966328621,
      0.0506860576570034,
      0.03241964802145958,
      0.034009646624326706,
      -0.0008497051894664764,
      -0.033149462193250656,
      0.01742447540163994,
      -0.010110709816217422,
      0.030658040195703506,
      0.021551508456468582,
      -0.010533981025218964,
      0.018254872411489487,
      -0.0009102001786231995,
      -0.047975804656744,
      0.0367744155228138,
      -0.04366568475961685,
      -0.047024745494127274,
      -0.05113556236028671,
      -0.014803320169448853,
      -0.028973188251256943,
      -0.03806467726826668,
      -0.010369684547185898,
      -0.03796025365591049,
      -0.033775944262742996,
      -0.018083222210407257,
      -0.04838738590478897,
      0.05402335897088051,
      -0.02945275790989399,
      -0.035557158291339874,
      0.03013193979859352,
      -0.008551891893148422,
      -0.01877753436565399,
      -0.015215560793876648,
      0.04972988739609718,
      -0.009967636317014694,
      -0.03971954435110092,
      -0.028667248785495758,
      0.03032241389155388,
      -0.03193514794111252,
      0.019097838550806046,
      0.04614383354783058,
      -0.04940909519791603,
      -0.013824455440044403,
      -0.050810519605875015,
      0.025317367166280746,
      -0.03321867808699608,
      -0.0342814102768898,
      -0.01966661959886551,
      0.045875851064920425,
      0.04208722338080406,
      0.04504397138953209,
      0.004065036773681641,
      0.05048437789082527,
      0.004151783883571625,
      0.04165024682879448,
      -0.03779330849647522,
      -0.0353243388235569,
      0.04579086974263191,
      0.04354139789938927,
      -0.018482211977243423,
      -0.008522618561983109,
      -0.05390242859721184,
      -0.00797060877084732,
      0.031393084675073624,
      -0.002397976815700531,
      0.05142834410071373,
      -0.04193631559610367,
      0.011820454150438309,
      -0.028932102024555206,
      -0.03844832628965378,
      -0.042316704988479614,
      0.0005546286702156067,
      -0.024685785174369812,
      0.025800395756959915,
      -0.02290654554963112,
      0.01129927858710289,
      0.05006900802254677,
      0.029743459075689316,
      -0.04783361032605171,
      0.04326978698372841,
      -0.027803689241409302,
      -0.00860828161239624,
      0.02084343507885933,
      -0.0050415098667144775,
      0.014210481196641922,
      0.0526907779276371,
      -0.037190988659858704,
      0.013264123350381851,
      0.036521125584840775,
      -0.010016363114118576,
      -0.05337803438305855,
      0.030908312648534775,
      0.019730795174837112,
      0.02545792981982231,
      -0.050874508917331696,
      0.017256107181310654,
      0.013956058770418167,
      -0.035764098167419434,
      0.018694568425416946,
      -0.012709617614746094,
      -0.05188500136137009,
      0.0073097385466098785,
      -0.04276102036237717,
      -0.028882231563329697,
      0.01404961571097374,
      -0.007599160075187683,
      0.04770032688975334,
      0.042021092027425766,
      -0.033205918967723846,
      0.05096809193491936,
      -0.04404192790389061,
      -0.04285368323326111,
      0.03759550675749779,
      0.0151478610932827,
      0.02076433226466179,
      -0.01960597187280655,
      0.023494739085435867,
      0.05134117230772972,
      -0.02989785559475422,
      -0.05039527639746666,
      -0.04962711036205292,
      -0.024380208924412727,
      0.005884431302547455,
      -0.020498163998126984,
      0.010573815554380417,
      0.030958767980337143,
      -0.004828318953514099,
      0.05283138528466225,
      -0.007355131208896637,
      0.03727884963154793,
      0.008071225136518478,
      0.0005359835922718048,
      0.015348080545663834,
      -0.011203847825527191,
      0.040992770344018936,
      -0.026980465278029442,
      -0.04156659543514252,
      0.010848190635442734,
      -0.017609968781471252,
      -0.02986017055809498,
      -0.027197863906621933,
      0.027632754296064377,
      0.0004197359085083008,
      0.009506318718194962,
      0.02132708951830864,
      0.0315202958881855,
      -0.02689230814576149
    ],
    [
      -0.028493547812104225,
      -0.04135976731777191,
      0.040126409381628036,
      -0.030259625986218452,
      0.05284058675169945,
      -0.051616914570331573,
      0.04395975545048714,
      0.04822053387761116,
      -0.04034747928380966,
      -0.04863875359296799,
      -0.02347785234451294,
      0.027746137231588364,
      -0.04237020015716553,
      0.031244289129972458,
      -0.027850568294525146,
      0.04348282143473625,
      0.023673560470342636,
      -0.04611006751656532,
      0.008881989866495132,
      -0.013027045875787735,
      -0.04020604491233826,
      0.04593741521239281,
      -0.04643112048506737,
      -0.05404922738671303,
      -0.02903245948255062,
      0.046097975224256516,
      -0.00854828953742981,
      0.051395464688539505,
      -0.007143497467041016,
      -0.007354747503995895,
      0.021802391856908798,
      0.052014630287885666,
      0.02362985536456108,
      0.0016742683947086334,
      0.05098947510123253,
      0.03614700958132744,
      0.05006561800837517,
      -0.0190955251455307,
      0.008493583649396896,
      -0.032772958278656006,
      -0.0361640527844429,
      -0.01624058559536934,
      0.03018561378121376,
      0.05311048403382301,
      0.04584797844290733,
      0.0005394555628299713,
      -0.017462510615587234,
      0.002262461930513382,
      0.04947489872574806,
      0.04650847241282463,
      -0.03486678749322891,
      0.037811484187841415,
      -0.014647267758846283,
      -0.00917050614953041,
      -0.018507763743400574,
      0.025298308581113815,
      -0.02766270749270916,
      -0.017894994467496872,
      -0.018728576600551605,
      0.04459859058260918,
      0.02370006963610649,
      0.008748140186071396,
      0.041909780353307724,
      0.03028663620352745,
      0.022706937044858932,
      -0.040901947766542435,
      -0.03546937555074692,
      0.029286455363035202,
      0.022320080548524857,
      -0.013510305434465408,
      0.039633024483919144,
      0.01454237475991249,
      0.04903090372681618,
      -0.02794518880546093,
      0.0015741698443889618,
      -0.002022966742515564,
      -0.0413086824119091,
      0.006040628999471664,
      0.009202245622873306,
      0.0039163678884506226,
      0.045597996562719345,
      0.04177805408835411,
      0.02969188615679741,
      0.01504896953701973,
      -0.016715075820684433,
      -0.034014057368040085,
      0.03261328861117363,
      -0.031054701656103134,
      -0.027685251086950302,
      0.008229486644268036,
      0.054210562258958817,
      -0.02817782759666443,
      -0.0034717395901679993,
      0.03655834123492241,
      0.03201587125658989,
      0.01207420602440834,
      -0.007589273154735565,
      0.03517865762114525,
      -0.04667988047003746,
      -0.021661080420017242,
      -0.009206313639879227,
      -0.006740216165781021,
      -0.03755037859082222,
      0.03815094754099846,
      0.03844965621829033,
      -0.010784585028886795,
      -0.05139922350645065,
      -0.01787373796105385,
      -0.0444321408867836,
      -0.032917968928813934,
      0.04983730986714363,
      -0.0370640903711319,
      0.012501198798418045,
      0.03000709041953087,
      0.02076679840683937,
      -0.0481046587228775,
      0.01241840049624443,
      0.03223421797156334,
      -0.04110321030020714,
      0.024736005812883377,
      -0.024772830307483673,
      0.005403649061918259,
      -0.038227181881666183,
      -0.048174306750297546,
      -0.04801187664270401,
      -0.025961983948946,
      -0.04289267957210541,
      0.05097580328583717,
      -0.05134160816669464,
      0.00938374176621437,
      0.04017126187682152,
      -0.012448068708181381,
      -0.004782881587743759,
      0.003206126391887665,
      -0.04451154172420502,
      -0.021372999995946884,
      0.0279148630797863,
      0.04433061555027962,
      -0.03931589424610138,
      -0.039244621992111206,
      -0.04780757054686546,
      0.04762696102261543,
      -0.005803465843200684,
      -0.0039711520075798035,
      0.024653900414705276,
      -0.041966259479522705,
      0.052268270403146744,
      0.051154378801584244,
      -0.013717859983444214,
      -0.013824518769979477,
      0.048096444457769394,
      0.04511350765824318,
      0.010221030563116074,
      -0.013537764549255371,
      0.03219784423708916,
      0.016783904284238815,
      -0.0009771846234798431,
      0.00782894715666771,
      -0.036783814430236816,
      0.05054594203829765,
      0.03891636058688164,
      -0.011037793010473251,
      0.021616410464048386,
      0.011567521840333939,
      0.02442377433180809,
      0.04926515743136406,
      -0.00476972758769989,
      -0.03303765505552292,
      -0.01494935154914856,
      0.043027330189943314,
      0.03256097808480263,
      -0.02764631062746048,
      -0.03682384639978409,
      0.011660624295473099,
      -0.04841028153896332,
      0.006761886179447174,
      -0.03222979977726936,
      0.03162110969424248,
      0.030018050223588943,
      -0.02634052373468876,
      0.03511691465973854,
      0.0010178163647651672,
      0.0017994493246078491,
      0.03095225617289543,
      0.0282684825360775,
      -0.01328989863395691,
      0.00716259703040123,
      -0.024375470355153084,
      0.017760511487722397,
      -0.042792052030563354,
      0.0351049043238163,
      0.033918578177690506,
      -0.01041492074728012,
      0.038137976080179214,
      -0.008036796003580093,
      0.010188896209001541,
      0.02182861790060997,
      0.04210720583796501,
      0.018929626792669296,
      -0.04439647123217583,
      0.026710163801908493,
      -0.04580843448638916,
      -0.012910932302474976,
      -0.014322839677333832,
      0.02822413668036461,
      -0.037860721349716187,
      -0.04867773875594139,
      0.04009250923991203,
      0.029095206409692764,
      -0.04645992070436478,
      -0.037979066371917725,
      0.0392364077270031,
      -0.02297130972146988,
      0.01080356165766716,
      -0.007475089281797409,
      -0.02704852819442749,
      -0.04563615471124649,
      -0.01331464946269989,
      0.021292779594659805,
      0.01830236241221428,
      -0.01588192582130432,
      -0.047933656722307205,
      0.026509787887334824,
      -0.04134731739759445,
      0.033330176025629044,
      0.014437396079301834,
      0.007458183914422989,
      0.019127067178487778,
      0.05325153097510338,
      0.05329664424061775,
      0.03419755771756172,
      0.03732210025191307,
      0.023861397057771683,
      0.0009920597076416016,
      -0.04991953447461128,
      -0.05200254172086716,
      -0.024822333827614784,
      0.030226949602365494,
      -0.050633352249860764,
      0.03541169688105583,
      0.026541564613580704,
      0.04443332180380821,
      0.0013677887618541718,
      0.037047456949949265,
      0.0039002373814582825,
      0.017842527478933334,
      -0.029899341985583305,
      0.03388037905097008,
      -0.019523166120052338,
      -0.04954463243484497,
      -0.054115720093250275,
      0.012109708040952682,
      0.021803248673677444,
      -0.018728137016296387,
      0.051660243421792984,
      0.006258420646190643,
      -0.023114822804927826,
      -0.020876441150903702,
      -0.007333710789680481,
      0.0010857246816158295,
      -0.04672373831272125,
      -0.038149189203977585,
      0.039938557893037796,
      0.02219889685511589,
      0.03624511882662773,
      -0.024241793900728226,
      0.03771216794848442,
      -0.024750733748078346,
      -0.02027745544910431,
      0.011690940707921982,
      0.0010027922689914703,
      0.011318255215883255,
      -0.009089011698961258,
      -0.017988581210374832,
      0.01423339918255806,
      0.03944731876254082,
      -0.04339558631181717,
      -0.031296148896217346,
      0.025401461869478226,
      0.006259437650442123,
      0.03290973976254463,
      0.053870636969804764,
      -0.00021371617913246155,
      0.024589452892541885,
      -0.03509146720170975,
      -0.048067450523376465,
      -0.05076666921377182,
      -0.002616100013256073,
      -0.03625005856156349,
      0.04909060522913933,
      0.04652881249785423,
      0.022578727453947067,
      0.021954860538244247,
      -0.0010625720024108887,
      -0.027141023427248,
      -0.03329218924045563,
      -0.025662677362561226,
      0.013765458017587662,
      -0.05095596984028816,
      -0.025775672867894173,
      0.019361767917871475,
      0.024198349565267563,
      0.017417151480913162,
      -0.00431610643863678,
      0.027962904423475266,
      -0.019164279103279114,
      0.020432408899068832,
      0.0076378993690013885,
      0.050502341240644455,
      0.02605043724179268,
      -0.0412171296775341,
      -0.015957411378622055,
      0.051274340599775314,
      -0.0500238798558712,
      0.0220966599881649,
      0.010055620223283768,
      0.0030179619789123535,
      -0.008866168558597565,
      -0.02926763705909252,
      -0.030954675748944283,
      0.025585975497961044,
      -0.033507127314805984,
      0.03641441836953163,
      0.035918962210416794,
      0.0344359464943409,
      -0.04588945209980011,
      -0.002874597907066345,
      -0.034777648746967316,
      0.0222182460129261,
      0.007890712469816208,
      -0.04870062321424484,
      -0.022544242441654205,
      -0.01947775110602379,
      0.021996665745973587,
      0.04341847822070122,
      -0.03028758056461811,
      0.02332622930407524,
      0.03032175824046135,
      0.03759970888495445,
      -0.04072971269488335
    ],
    [
      -0.03446418419480324,
      0.024897027760744095,
      0.030776996165513992,
      0.005938895046710968,
      0.040794435888528824,
      -0.014925267547369003,
      0.02481430396437645,
      0.053916092962026596,
      0.02869405224919319,
      -0.02297617867588997,
      -0.02751818113029003,
      0.027529601007699966,
      0.014643687754869461,
      -0.05386911332607269,
      0.015551436692476273,
      0.010464224964380264,
      -0.0024431049823760986,
      0.028265926986932755,
      -0.050996504724025726,
      0.010783623903989792,
      0.038925427943468094,
      0.007461674511432648,
      -0.050630442798137665,
      -0.04046768322587013,
      -0.028678711503744125,
      -0.05220000445842743,
      -0.01290673017501831,
      0.03351039066910744,
      0.028184961527585983,
      0.0005027353763580322,
      -0.00014540553092956543,
      0.05371292307972908,
      -0.0007798820734024048,
      -0.011325307190418243,
      0.038039680570364,
      0.0463605560362339,
      0.04932183399796486,
      0.003704328089952469,
      0.019026268273591995,
      -0.010113619267940521,
      0.004232075065374374,
      -0.03342660516500473,
      0.04987021163105965,
      0.007430583238601685,
      -0.03177741542458534,
      0.042683739215135574,
      0.039851706475019455,
      0.0010470114648342133,
      -0.04833165183663368,
      0.02141648903489113,
      -0.003224726766347885,
      0.016915518790483475,
      -0.00971817597746849,
      0.03682555630803108,
      -0.005911488085985184,
      -0.01625017449259758,
      -0.034440528601408005,
      -0.0011344775557518005,
      -0.0014017559587955475,
      -0.012616410851478577,
      -0.019657045602798462,
      -0.04248689487576485,
      -0.02277158573269844,
      -0.03084081970155239,
      -0.050058357417583466,
      -0.0026446133852005005,
      0.013787250965833664,
      0.03532704338431358,
      -0.05194133147597313,
      0.003270775079727173,
      0.0048608556389808655,
      -0.048875223845243454,
      0.04660448804497719,
      -0.015202559530735016,
      -0.050480782985687256,
      -0.03944436460733414,
      0.027429673820734024,
      0.028852935880422592,
      -0.0022408775985240936,
      0.027632493525743484,
      -0.0008540116250514984,
      0.009867791086435318,
      0.05199498310685158,
      -0.018344663083553314,
      -0.036523085087537766,
      0.05080060288310051,
      0.04515298828482628,
      -0.03135877847671509,
      0.004566129297018051,
      0.011253107339143753,
      -0.0036386996507644653,
      0.0015320591628551483,
      0.0002429559826850891,
      -0.02513500116765499,
      -0.02837403491139412,
      -0.03320824354887009,
      -0.038486920297145844,
      0.016153160482645035,
      0.02055017277598381,
      0.02341548725962639,
      0.00741124153137207,
      0.015765313059091568,
      0.04895736649632454,
      -0.030203212052583694,
      -0.03871595114469528,
      0.04769231006503105,
      0.00896303728222847,
      0.0317683108150959,
      -0.030861228704452515,
      -0.017832666635513306,
      -0.011825550347566605,
      0.047566499561071396,
      0.0320022888481617,
      0.008126404136419296,
      -0.03174537420272827,
      0.033134836703538895,
      0.0007369369268417358,
      -0.027015944942831993,
      -0.021064694970846176,
      -0.0495087206363678,
      0.024438481777906418,
      -0.021634768694639206,
      0.02959567680954933,
      0.03691761568188667,
      0.01314452663064003,
      0.022497083991765976,
      0.03537930175662041,
      0.035261113196611404,
      -0.04742654040455818,
      -0.013497557491064072,
      -0.012255050241947174,
      0.02681994065642357,
      0.021030563861131668,
      0.022402625530958176,
      -0.004124961793422699,
      -0.031811363995075226,
      -0.03590315952897072,
      -0.010684020817279816,
      -0.0444040410220623,
      -0.035618748515844345,
      -0.03894554451107979,
      0.02533356472849846,
      -0.04094722867012024,
      0.015409473329782486,
      -0.008599437773227692,
      0.03047032281756401,
      0.0499286986887455,
      0.012617688626050949,
      0.0293673537671566,
      -0.030133118852972984,
      0.017060954123735428,
      0.039409589022397995,
      0.03298915550112724,
      0.018800627440214157,
      -0.031193027272820473,
